0.098164 0.1622 -0.19884 -0.20959 0.53093 0.09495 -0.24861 -0.097132 -0.19475 0.059713 0.014594 -0.11486 -0.085391 -0.10193 -0.090012 -0.011464 0.032306 -0.20826 0.16428 0.18784 0.08688 0.011779 0.36959 0.014244 0.075714 0.26656 0.19231 0.15583 0.25277 -0.074816 0.079671 -0.1388 -0.054883 -0.076828 0.020406 0.2167 0.095176 -0.29272 -0.041318 0.049619 0.23675 -0.14197 0.33053 -0.011859 -0.040109 -0.099003 0.0342 0.16613 0.15228 -0.21705 -0.30759 -0.16127 0.1507 0.080526 -0.071861 0.14556 -0.28186 -0.20474 0.040066 -0.012225 -0.081565 0.18497 0.16651 0.12737 -0.075269 -0.12062 0.023266 0.053135 0.10825 -0.05774 -0.044132 -0.17023 -0.165 -0.10038 0.18005 -0.14158 0.24311 -0.32621 -0.26025 -0.09849 0.18072 -0.1634 -0.069733 0.33946 -0.11216 0.079879 -0.008667 -0.054019 0.13483 0.21081 0.051714 -0.19651 0.26331 0.3694 -0.020821 0.16883 0.09873 -0.36493 -0.015181 0.066393 0.15943 0.069946 0.10382 0.054515 -0.1395 0.23247 0.27687 0.023242 -0.14085 0.46585 -0.1073 0.306 0.044779 -0.016625 0.13722 -0.21887 0.16952 -0.16994 -0.31967 -0.17338 -0.001613 -0.34685 0.092253 -0.089523 -0.30046 -0.22312 0.072328 -0.016004 0.03246 0.10829 -0.11487 -0.13717 0.084236 -0.026367 0.19056 -0.042625 0.20799 0.071835 -0.014794 0.10659 -0.043148 -0.12946 -0.25353 0.063047 0.46402 -0.0362 0.11164 0.16852 0.02197 0.1004 -0.090313 -0.033952 -0.016093 -0.10632 -0.043415 -0.25471 -0.15512 -0.10532 0.11254 -0.17002 -0.063116 0.091568 -0.18633 -0.098043 0.30732 0.16991 -0.0059808 -0.11584 -0.27517 -0.060588 -0.09796 0.10044 -0.25587 -0.038671 -0.10596 -0.016459 -0.1123 -0.35133 0.11008 -0.01063 -0.21544 0.031222 -0.19405 -0.16918 0.075852 -0.07169 -0.078138 0.036966 -0.072391 -0.0072027 0.1644 -0.12478 0.13799 -0.38336 0.067744 -0.33669 0.29802 0.36448 0.3601 0.28291 0.01974 -0.094108 0.34145 0.099529 0.0025924 0.062538 -0.063414 0.20886 -0.13946 -0.089791 0.032298 -0.38814 -0.19138 0.00048718 -0.095895 -0.0050632 0.16528 0.057982 0.16685 -0.035844 -0.22905 -0.28505 0.24697 0.021046 -0.13173 0.093458 0.081627 0.16797 -0.12795 0.09374 0.10364 -0.41115 0.19396 -0.19291 0.13015 -0.10047 0.050824 -0.13846 -0.1881 -0.020416 -0.0036671 -0.061105 0.10685 -0.0496 -0.022415 -0.10593 0.045352 0.29268 -0.014237 0.051947 -0.13372 0.11801 -0.33571 -0.044702 -0.22066 -0.21238 0.18555 0.068134 0.18912 0.13133 0.058313 0.045768 0.083184 0.04437 -0.084686 0.30733 -0.024021 -0.20419 0.053937 0.10069 0.2848 0.012946 0.22132 -0.11945 -0.1708 0.24988 -0.12741 -0.2132 -0.10218 -0.059476 -0.13714 -0.23001 0.10271 0.24021 0.10838 0.18076 0.29491 -0.061499 0.37048 0.018077 0.13882 0.12016 -0.00021042 0.099959 -0.11684 0.2011 0.040627 0.13665 -0.11057 -0.0182 0.024023 0.040583 0.073345 -0.018838 -0.073546 -0.066328 -0.1031 -0.12424 -0.083372 -0.14773 0.021317 -0.19716 -0.055881 -0.026099 0.15891 -0.16163 -0.0121 0.11959 0.19224 0.20797 -0.058245 -0.098219 -0.30293 -0.40856 0.0015101 -0.040617 0.11965 -0.018631 0.068357 0.15661 0.035625 -0.02142 0.30665 -0.068364 -0.015561 -0.22835 -0.48702 0.078281 0.021247 0.011364 0.010233 0.10781 0.15572 0.1898 0.29012 0.10054 0.17359 0.087051 0.17661 -0.48508 -0.096447 -0.22705 -0.17836 0.064826 -0.092894 0.07067 -0.11209 -0.063753 -0.050484 0.28179 0.19899 0.21565 -0.21262 -0.22728 0.019682 0.063498 -0.1262 0.1055 0.00046866 -0.13932 0.3296 -0.12763 0.044581 0.13496 0.22256 0.056133 -0.73999 -0.63865 -0.10046 -0.025471 -0.18477 0.096778 -0.10531 -0.18152 0.13578 -0.349 0.27418 0.40157 0.087296 0.10436 -0.06745 0.080707 0.134 0.14015 -0.18513 0.1573 0.14955 0.059926 0.11835 0.16452 0.12899 0.15074 0.18977 -0.53465 -0.42278 -0.54207 -0.07498 0.12004 -0.28257 0.026506 0.062711 -0.20424 -0.087308 -0.054009 0.32118 0.17601 0.41245 0.11887 -0.12933 0.093201 0.26236 0.092923 0.027172 0.0072005 -0.18766 -0.068401 -0.10134 0.057505 0.070963 0.026061 -0.22721 -0.71039 -0.40087 -0.25514 -0.15566 -0.044992 -0.030401 -0.067012 -0.1061 0.055674 -0.086126 -0.047994 0.09804 0.33571 0.15773 0.10532 0.1828 -0.26225 0.18481 0.020092 0.16578 -0.028673 0.0012808 -0.0013134 0.1368 0.19721 -0.18917 0.2627 -0.42852 -0.82891 -0.36248 -0.12913 0.20604 0.028165 -0.14752 -0.019603 0.15515 -0.098204 0.020891 0.02595 0.2464 -0.12656 -0.094815 0.041292 -0.22743 -0.088986 0.075246 0.10925 -0.12261 -0.2261 0.038889 0.0012777 0.17194 -0.051464 0.065889 -0.45237 -0.58869 -0.22006 -0.38727 0.062066 0.11675 -0.058904 -0.1474 -0.070173 -0.040457 0.13391 0.08429 0.057704 0.19089 -0.14468 -0.19709 -0.23968 -0.1436 0.48082 -0.015769 0.20821 0.10118 -0.17271 0.16234 0.069607 0.018932 0.01965 0.072922 -0.21003 -0.51101 -0.44486 -0.2034 -0.042007 0.075015 0.055959 0.011414 0.0059527 -0.042124 -0.013928 -0.15356 0.0055514 0.040147 0.042917 -0.11522 -0.15478 -0.026541 0.30613 0.057324 -0.033796 0.38664 0.10769 -0.018848 -0.17119 0.11428 0.090327 -0.067499 0.15097 -0.26822 -0.097487 -0.18913 -0.15534 0.19918 -0.066727 -0.066158 -0.11312 0.091051 -0.034976 0.3593 -0.10473 -0.093814 -0.37243 0.33043 -0.087555 0.067 -0.0929 -0.11325 -0.019402 -0.045198 -0.094941 -0.10476 -0.1153 0.20819 -0.13643 -0.060193 0.1179 0.12107 -0.074868 0.36637 -0.017788 -0.073382 0.090796 0.16589 0.17624 -0.069506 -0.15822 -0.17233 -0.21579 -0.38155 0.049245 -0.0025827 -0.18688 0.061847 -0.19919 -0.095319 0.097683 0.088693 0.18924 -0.3773 0.042302 -0.088991 -0.20051 0.23925 0.01639 0.094674 0.079215 -0.10152 0.14328 -0.14038 0.081203 -0.21209 -0.12446 0.033061 -0.17631 -0.21473 0.026195 -0.13587 0.076216 0.078687 0.25484 0.30984 0.12007 -0.018089 0.037136 0.11561 0.16162 -0.23342 0.078051 -0.017169 0.15564 -0.12135 0.15365 0.074347 -0.097047 -0.22383 0.23601 0.22415 0.036122 -0.086468 0.32318 -0.10665 0.16539 -0.028623 -0.27723 0.054089 -0.28185 0.15767 -0.13948 0.20181 0.2058 -0.10389 -0.21225 -0.17059 -0.30507 0.2398 0.10721 0.12989 0.09329 -0.22095 0.079282 -0.076703 0.15402 -0.27014 0.048818 0.060004 -0.099944 0.16041 -0.10878 0.17913 -0.18334 -0.1316 -0.037968 -0.061599 0.40259 -0.32197 -0.22312 -0.47163 -0.19474 -0.25955 -0.22011 0.06712 -0.063418 0.13988 -0.067742 -0.034553 0.080098 -0.090738 0.20947 -0.034906 0.15319 -0.075048 0.0093124 0.063638 0.066803 -0.097323 0.11756 -0.055461 0.10388 0.11287 0.032973 0.1022 -0.035386 -0.29373 -0.0043398 -0.14861 0.16454 -0.02455 -0.027775 -0.015393 0.36117 -0.23942 0.37943 -0.16179 0.2547 0.028714 0.099348 0.040247 -0.057814 -0.12527 -0.062331 -0.065132 0.17718 0.08964 -0.06043 -0.078719 -0.0097186 -0.11027 0.062267 0.19409 -0.20891 -0.22147 -0.13701 -0.036782 0.15337 -0.080803 0.020269 0.14668 0.05651 -0.032359 -0.043297 -0.21358 -0.027875 0.14256 -0.094267 -0.081631 0.20495 0.15872 -0.25509 0.13224 -0.059129 -0.24872 0.26356 -0.13061 0.043132 0.20965 0.013304 -0.18624 -0.075701 -0.061845 0.087748 -0.10017 -0.091725 -0.04235 -0.19534 0.13465 0.070248 -0.071549 -0.021732 -0.12202 -0.46198 -0.20417 0.020771 -0.27163 0.17916 -0.25255 -0.23216 -0.24335 0.16991 -0.35964 -0.30839 -0.34781 -0.076603 -0.29244 0.19457 0.22205 0.015331 -0.054314 0.49598 -0.020715 0.030407
1.7088
0.33482 -0.20943 0.0059442 0.019147 0.15066 -0.0036566 0.083077 0.30711 0.17047 0.19766 -0.17317 -0.21979 -0.022791 -0.056839 -0.033004 -0.36916 -0.056142 -0.19962 -0.054793 0.26619 0.25784 0.1096 -0.43079 0.2418 0.063616 0.37428 -0.13673 -0.33831 -0.011452 -0.091933 -0.092084 -0.12663 -0.12756 -0.19227 -0.1516 0.22147 0.15596 0.0032113 0.083518 -0.11288 -0.18049 0.25988 0.040471 -0.086415 -0.16073 -0.035634 0.16938 0.01232 0.048618 -0.0034895 0.075466 0.015092 -0.041863 -0.037385 -0.39734 -0.080789 -0.28332 0.044995 -0.020976 -0.046684 0.14303 0.0093151 0.20228 -0.12811 -0.086621 -0.11745 0.036576 0.26159 0.21876 0.089447 -0.23535 0.23949 0.12499 -0.15545 -0.060352 -0.19611 -0.25591 0.32649 0.090362 0.31224 0.018502 0.057193 -0.25035 0.16926 0.044127 -0.15294 -0.08444 -0.070627 -0.17163 -0.23679 -0.047223 0.085763 0.2589 0.02256 0.32522 0.20072 -0.035533 0.12465 -0.36844 0.15326 0.060767 0.13279 0.0025957 -0.40128 -0.03771 0.020472 -0.045015 -0.10483 -0.1389 -0.22335 0.047293 -0.059354 0.026618 -0.0045052 -0.1577 0.11299 0.40594 0.1566 -0.17566 -0.070583 -0.044762 0.35855 0.20219 -0.21241 -0.42596 0.11756 -0.38683 -0.31813 0.2809 0.056525 0.31814 0.24662 0.089453 0.38456 -0.045294 0.12478 -0.13117 -0.062854 -0.15256 -0.021216 -0.17915 0.0053579 0.0035269 -0.062892 -0.069238 -0.11986 -0.049823 0.050079 0.065259 0.14809 -0.33536 0.020038 0.42633 0.28372 -0.20738 -0.084711 0.15002 0.024043 -0.13515 0.20604 -0.094248 0.10931 -0.3336 -0.027051 0.02725 -0.059741 0.030098 0.065047 -0.13874 -0.061826 -0.27249 -0.12778 0.080143 -0.24553 0.16474 -0.15633 0.28034 -0.26995 0.187 -0.30407 -0.2381 -0.15155 -0.2513 0.3055 0.0097927 0.093852 -0.28597 -0.38071 0.037393 -0.12586 0.090308 -0.48075 -0.11116 0.20021 0.1326 -0.22168 -0.17808 -0.02802 0.11733 0.21853 0.12015 0.14753 0.040705 -0.28601 -0.043257 0.22504 -0.16101 0.18056 -0.26599 0.078711 -0.081454 -0.16515 -0.0051586 -0.51073 0.04037 0.15713 -0.045262 0.047274 -0.014107 -0.094081 0.069546 -0.17863 -0.38832 0.037014 0.21933 -0.03866 -0.059619 -0.18672 0.11574 -0.050526 -0.093059 -0.15746 0.071493 0.29277 -0.31132 -0.04173 -0.18198 0.075036 -0.28892 -0.14713 -0.096828 0.11701 0.079516 -0.27488 -0.11421 0.018414 0.24213 0.20867 -0.21057 -0.074311 -0.14622 -0.17106 -0.1528 0.26174 0.084679 0.061718 -0.032699 -0.21608 -0.0034265 0.010135 -0.060336 0.3826 0.0043794 0.056856 -0.335 0.23173 -0.44901 0.044868 0.070804 0.040095 0.1657 -0.12007 -0.098247 -0.065502 0.48354 0.02903 0.22298 0.30491 0.09766 -0.23847 -0.2314 -0.28317 -0.11775 -0.06355 0.22236 -0.29032 -0.1421 0.086135 -0.21766 -0.26914 -0.095122 -0.15956 0.1858 0.048784 0.038852 0.17873 -0.11918 -0.093189 0.067387 -0.097255 0.10904 -0.027568 -0.012078 0.16776 -0.30338 0.19462 0.064791 0.11841 -0.010648 -0.074699 0.11257 -0.12796 0.028343 0.19745 0.28149 -0.017596 0.21072 -0.44308 0.19482 -0.11442 0.060144 0.042864 0.39465 0.15676 -0.10181 -0.28088 -0.049425 0.11498 -0.043919 -0.20132 0.10017 -0.029577 0.14431 0.076846 0.025936 0.016645 0.28269 0.21877 -0.27112 -0.18632 -0.13724 -0.32037 -0.032836 0.16829 0.22453 0.16858 0.26075 0.24972 -0.10722 0.13089 0.15746 -0.11976 0.11341 -0.02813 0.11813 -0.22368 -0.36483 0.088847 -0.086501 0.05439 -0.086019 -0.057489 -0.31882 -0.070038 0.021713 0.14018 0.011068 0.23214 -0.021652 0.037916 0.12006 -0.040462 0.25447 -0.072133 -0.076497 -0.11588 -0.10997 -0.16249 0.042411 -0.045097 0.061046 -0.2614 -0.18602 -0.24434 -0.20042 -0.24962 0.10589 0.29743 0.29729 0.23824 0.2351 0.43987 0.20547 -0.096697 0.15922 0.34459 -0.076635 0.053786 0.079495 -0.007058 0.17041 0.061393 0.044251 -0.084306 0.080823 -0.15282 -0.09802 -0.49982 -0.11702 -0.095103 0.17298 -0.20214 0.40332 -0.18415 -0.20929 0.15453 0.10671 -0.1245 -0.090205 0.057424 0.16228 -0.0092692 0.15724 0.15951 0.33726 -0.083046 -0.21594 -0.17007 0.0064403 -0.047762 0.14035 0.028767 0.11202 -0.042444 0.053715 0.020162 0.092819 -0.22008 0.34953 -0.10316 -0.39072 -0.30565 -0.13198 -0.18309 0.36614 0.12783 0.040795 -0.19044 0.22497 -0.21442 0.013362 0.14376 -0.13649 -0.15407 -0.1036 0.16889 -0.47768 -0.10518 -0.022137 0.12258 -0.15335 -0.0030326 -0.092907 0.015681 -0.42235 -0.33205 0.3007 -0.11305 0.025514 -0.32462 0.046115 -0.14808 -0.17187 0.30155 0.2036 0.12934 -0.066763 0.059017 0.011891 -0.27888 -0.050443 0.353 0.19377 -0.20746 0.07746 -0.20498 0.20888 0.37862 0.30882 -0.049828 -0.14364 -0.053769 0.30029 -0.10222 -0.20057 -0.078789 0.27922 -0.024143 0.44977 0.27977 -0.0031189 -0.16262 0.048654 0.11995 -0.30101 0.058456 -0.31133 -0.37596 0.19965 -0.054242 -0.40562 -0.40142 0.29294 -0.17766 -0.077662 -0.046665 -0.011858 -0.21616 -0.044402 0.0087856 0.074706 -0.15241 0.21774 0.11665 -0.16772 -0.30979 -0.41037 0.09024 0.060566 0.060782 -0.00054245 0.31485 0.34661 -0.39387 0.13492 -0.22998 -0.093183 0.30506 0.30419 0.10714 -0.17129 -0.12767 -0.050434 -0.21208 0.11643 0.019742 -0.10086 -0.50609 0.066766 0.12226 -0.096659 0.44586 0.068179 -0.048518 -0.20946 0.02958 0.032141 0.19412 0.039889 -0.12104 0.053769 0.068339 0.10726 -0.030288 0.20237 -0.14557 -0.12278 -0.11969 0.048365 0.0011834 -0.19256 0.10193 0.12653 0.11012 -0.11995 0.10006 0.18491 0.088694 0.071888 0.13683 0.15115 0.24887 0.074993 0.078675 0.082879 -0.17103 -0.10865 0.10239 0.35766 -0.10686 0.30302 0.39749 -0.36912 -0.17194 -0.2109 0.017734 0.023326 -0.20282 -0.0035505 -0.11739 -0.010828 -0.037624 -0.023375 0.37428 0.19617 -0.15311 -0.12929 -0.059738 -0.46944 -0.069362 0.20118 0.098197 -0.13985 -0.33721 -0.27202 0.079787 -0.030059 -0.057929 0.40425 0.028733 -0.37532 -0.13821 0.14751 -0.15159 -0.13582 -0.15504 0.13231 0.068028 0.074303 -0.087563 -0.0043693 -0.0034673 0.19532 -0.038683 -0.025009 0.014294 -0.080307 -0.023378 -0.26572 0.18617 -0.055281 -0.15628 -0.035847 0.092892 -0.1836 0.023775 0.0060603 0.21333 -0.18249 -0.1117 -0.032374 -0.039766 -0.24059 0.11342 -0.081761 -0.0086228 -0.11876 -0.29701 0.076237 -0.12874 -0.07584 -0.44442 -0.092487 -0.061213 0.052642 -0.08064 0.056782 0.25383 -0.10182 -0.38792 -0.12957 0.18158 -0.14185 0.44468 -0.22375 -0.087977 -0.13168 -0.16905 -0.076214 -0.06317 -0.23364 0.080901 0.16643 0.40193 -0.064563 -0.087897 -0.029935 0.24678 -0.047421 -0.073152 -0.015306 0.017839 -0.087554 0.14246 0.30561 0.20432 -0.20097 -0.093558 -0.11277 -0.1475 -0.010217 0.05303 0.084925 0.1204 -0.23868 0.26155 -0.058383 0.16435 -0.1416 0.24987 0.045291 0.050078 0.33966 -0.14069 -0.074775 0.15314 -0.12242 -0.19391 -0.022744 0.21118 -0.29177 -0.21914 -0.1922 0.31944 0.20752 0.036126 -0.26572 -0.079869 0.024039 0.037158 -0.28064 -0.11514 0.39816 0.086567 0.22099 -0.051097 0.41405 0.1375 0.11179 -0.084416 -0.15168 0.017401 -0.11941 0.061805 0.21985 0.17062 0.081565 0.059236 0.0099858 0.21667 -0.32046 0.17386 -0.17351 -0.087882 -0.19599 0.005491 -0.023192 0.027656 0.18193 0.041689 -0.25834 -0.04076 0.04636 0.4305 -0.042636 -0.1295 0.13809 -0.48714 -0.1736 -0.087248 0.11713 -0.19953 -0.0027921 -0.3711 -0.042302 0.077635 0.1626 -0.064014 0.092222 0.022215 -0.27277 0.12315 0.014338 0.085434
-1.7298
-0.41241 -0.19515 0.10088 0.13186 0.25176 -0.0063483 -0.15495 -0.15989 0.06396 0.18368 0.075128 -0.046364 0.27002 -0.10407 0.0083697 -0.17931 -0.024067 -0.079166 0.18794 0.008667 0.0041277 -0.24858 -0.093108 -0.038919 0.063765 0.022 -0.17095 -0.037848 0.081961 0.22517 0.018642 0.23396 0.15204 0.11826 -0.064318 0.088637 0.24498 0.15123 -0.05026 0.093457 0.3319 0.0011311 0.49846 0.39981 -0.048731 -0.0071753 -0.020406 -0.29947 -0.043046 0.061807 0.091567 -0.11026 0.04788 -0.17852 -0.2183 -0.11486 0.15831 0.28501 0.012526 0.073875 0.22589 -0.080412 0.14979 0.091507 -0.37458 0.10528 0.17258 -0.24741 0.025092 -0.12945 -0.0072363 -0.2161 0.20369 0.082369 0.12612 0.14849 0.035505 -0.16094 0.055736 -0.071303 -0.066207 0.12179 0.0018819 -0.22401 0.1003 -0.23872 -0.10528 -0.10115 -0.04734 -0.022252 -0.24735 0.058912 -0.18785 0.05296 0.12962 0.12194 -0.16577 0.00099965 -0.16091 -0.14613 -0.2373 0.39943 -0.3538 0.22208 -0.12231 0.0060549 -0.31752 0.094246 0.15739 -0.19567 -0.15918 0.018467 -0.20413 0.036503 -0.19551 -0.15198 -0.2377 0.059374 -0.1178 0.18839 0.03463 -0.14903 0.0067259 0.045564 -0.13132 -0.26222 -0.10492 -0.3938 0.22806 -0.042689 -0.037373 -0.4537 0.3818 -0.11564 0.099635 0.15085 -0.050664 -0.17908 0.17876 -0.026252 -0.14051 0.10048 -0.24656 0.0055973 -0.086535 0.12862 -0.38692 0.30434 0.013107 -0.16663 -0.16047 -0.034146 -0.44758 -0.087914 -0.1797 -0.38404 -0.23584 0.10294 0.064708 -0.098631 0.044149 -0.014055 -0.20709 0.050705 -0.10305 -0.011387 0.21362 0.23828 0.1935 -0.25992 0.081877 -0.043944 0.24798 -0.16405 0.18095 0.23543 0.38903 -0.19184 -0.018755 -0.14847 0.058688 0.11834 -0.2678 0.42372 0.043287 0.38929 0.10826 -0.0010022 -0.3187 -0.094004 -0.4692 0.12406 -0.25066 -0.031656 -0.15006 -0.1116 -0.1275 -0.26868 0.083738 -0.017274 0.26402 0.076996 0.17532 0.057102 0.10372 -0.20993 0.015046 0.059402 -0.18421 0.4508 0.10122 -0.037493 -0.056099 -0.030814 0.014212 0.1023 -0.079135 -0.22227 0.030492 0.27822 -0.24671 -0.19523 -0.064205 0.034479 0.0094727 -0.28557 -0.01054 -0.097654 0.12042 0.059029 0.079431 -0.25372 -0.056824 -0.27087 -0.14187 0.18397 0.013454 0.41654 -0.13551 -0.2481 -0.22683 0.20438 -0.048348 -0.18467 0.15026 -0.17595 0.20353 -0.17126 0.01741 -0.08757 0.39017 -0.15529 0.10488 0.21168 0.1407 -0.17479 0.072554 0.1441 0.065493 -0.15304 -0.52835 0.19329 -0.13337 0.19364 0.008164 0.23146 -0.12768 0.3057 -0.24931 0.037524 0.16874 -0.065479 -0.06184 -0.14669 -0.14184 -0.071727 0.14027 0.003583 -0.25361 0.10679 0.099251 -0.27526 0.10477 -0.24962 -0.25288 -0.11208 0.068095 0.22249 -0.10508 0.099827 -0.28528 0.0035247 -0.020079 -0.057069 -0.032303 -0.044531 -0.043436 0.3734 0.016222 -0.35182 0.037236 -0.21467 -0.089293 0.083051 0.040804 -0.17465 -0.20752 0.071694 0.32679 -0.046436 0.0027616 0.30727 -0.24423 0.010675 -0.019923 0.19552 -0.21296 -0.27252 0.158 -0.055889 0.16151 0.018211 0.049158 -0.040417 -0.047929 -0.11154 -0.11843 0.24735 0.11138 0.037773 -0.095707 -0.099325 -0.039953 -0.19013 -0.033093 -0.1824 -0.16877 0.20247 -0.064987 0.20725 -0.24156 0.12236 -0.015537 0.20308 0.059753 0.12943 0.25196 -0.2361 0.25285 0.39152 -0.34213 -0.24232 0.15983 0.37459 0.16109 -0.014915 0.15474 -0.016525 -0.13177 0.013198 0.0067536 0.10607 -0.001434 0.084448 0.13117 -0.21273 0.27632 0.075283 0.39881 0.062029 -0.12192 -0.15986 0.26226 -0.13286 0.18229 -0.18075 -0.16061 0.023988 -0.30954 -0.083989 0.22117 0.1887 -0.060822 -0.17324 -0.024414 -0.087316 0.1485 -0.11049 -0.42176 -0.064117 -0.081778 -0.035207 -0.2188 -0.19571 -0.11657 -0.14786 0.10746 -0.18193 -0.0060847 0.022057 -0.11592 -0.20689 0.036663 0.14581 0.089756 0.02467 0.12842 0.19417 -0.14189 0.045643 -0.21022 -0.034378 -0.23638 0.32528 0.13426 0.11396 0.25853 -0.0083241 0.13957 0.14308 0.20574 0.10399 -0.073431 0.091843 -0.097013 -0.097068 0.048685 0.096738 -0.34293 -0.043475 0.075393 -0.23904 0.041619 -0.015694 -0.21002 0.11184 0.0080911 0.029672 -0.36263 -0.027014 0.089919 -0.23796 0.028912 0.38955 -0.2883 -0.35298 -0.035039 -0.29306 0.12921 -0.13186 -0.019809 0.25547 0.086433 0.15838 0.16196 -0.0066584 -0.075518 -0.30188 0.032013 -0.13864 -0.02355 0.1245 0.095502 -0.0516 -0.28618 -0.18015 -0.12262 -0.049482 0.0070004 0.0060683 -0.071925 -0.21166 0.023717 0.047289 -0.1586 -0.0582 -0.20463 0.12776 -0.069058 -0.29601 0.28278 -0.3038 -0.32187 0.22271 -0.049307 -0.109 0.14441 -0.084738 -0.032145 -0.0043704 0.24176 0.16648 0.28714 0.1364 -0.37942 -0.036194 -0.16411 -0.35615 -0.17394 -0.10359 -0.12314 -0.051753 0.19688 0.1775 0.1434 -0.075171 0.063464 0.034869 -0.054805 0.17051 -0.2241 -0.30198 -0.090712 -0.15498 -0.19395 -0.097192 0.33201 0.10455 0.079994 -0.16814 -0.33071 0.16643 0.049226 0.41149 -0.15911 -0.19262 -0.1097 0.11067 0.060587 -0.23317 -0.25993 -0.18081 0.0018158 -0.10397 0.072311 -0.13407 0.068297 0.1194 -0.16278 0.06197 0.076264 0.1281 0.028721 -0.0015776 -0.13026 -0.21001 0.065486 0.081867 -0.32738 -0.13494 -0.12199 -0.1452 -0.13874 0.3222 -0.0103 -0.10744 0.083655 -0.065138 0.16456 -0.33481 0.036809 0.11131 -0.17167 0.26411 -0.079256 -0.091903 -0.036274 -0.10355 -0.042155 0.016948 0.34841 0.17279 0.055612 -0.00436 0.15229 -0.1784 -0.11252 0.16018 -0.050191 0.0011822 -0.059973 -0.16165 -0.71218 -0.047753 -0.18358 -0.083995 0.072983 0.17723 0.05121 0.0012065 0.18464 0.17933 -0.013506 0.093846 -0.019246 -0.025213 0.033033 0.11169 -0.13627 -0.032743 0.11826 -0.40131 0.12146 -0.024112 -0.26542 0.27812 -0.47051 -0.33964 0.33457 -0.25989 0.09956 -0.16373 0.15908 0.098942 0.20377 -0.50959 0.11611 -0.11443 0.048992 -0.035635 0.10331 -0.051966 -0.061943 -0.11193 -0.26452 0.064819 -0.033694 0.061637 -0.017967 -0.065597 -0.18656 0.045158 -0.23624 -0.11802 0.0088657 -0.045425 -0.2994 -0.16416 -0.088115 0.11881 0.23753 -0.10178 0.079101 -0.028825 -0.08914 -0.070541 -0.037638 -0.099441 0.10077 -0.098191 0.03356 0.0087757 0.29379 -0.17685 0.0488 0.011199 -0.092737 0.078549 0.11925 0.064737 0.18068 -0.13314 -0.053686 0.34096 -0.35692 0.08584 -0.11616 0.11122 0.14724 0.041244 0.20597 0.094034 0.15245 0.35003 -0.41166 0.036758 -0.26831 0.24763 0.075122 -0.18766 -0.0339 -0.055175 -0.29782 0.015141 0.18458 0.028999 -0.21539 -0.021028 -0.12967 -0.076045 -0.019803 -0.096594 0.0018753 0.31146 -0.18678 0.29688 -0.13836 0.2991 -0.15871 0.074604 0.22987 0.23241 -0.069078 -0.11814 -0.18077 0.097731 0.35042 0.17358 0.20564 0.050483 0.35076 -0.042894 -0.076638 -0.25152 -0.051934 0.084379 0.18216 -0.075422 0.03691 0.16673 -0.042675 0.3144 -0.093136 0.11959 0.044536 -0.026525 0.085883 0.24378 0.036295 -0.10964 -0.23261 -0.047038 -0.0084882 -0.092728 0.22179 -0.045029 0.085097 0.13886 0.14857 -0.064392 0.19971 0.14491 -0.20404 -0.14403 -0.16301 -0.018796 -0.012982 -0.16776 0.059242 0.15348 -0.3828 -0.03743 -0.10692 -0.098523 0.053973 0.2712 -0.3089 -0.10434 0.25029 0.09036 0.0015617 0.06651 0.15255 0.19365 -0.067456 -0.21499 -0.063188 -0.23726 0.079563 -0.41499 -0.20697 -0.027974 0.070542 -0.22263 0.029464 -0.071121 -0.1312 0.20589 -0.3344 -0.14867 0.22714 -0.2464 0.50151 -0.020894
-0.80812
0.15741 -0.14779 0.20094 0.47204 -0.1932 -0.14572 -0.061142 -0.088332 -0.0052957 -0.11884 0.1236 -0.26083 -0.15717 -0.18728 -0.011642 0.11183 0.1087 -0.030758 -0.063 0.31882 -0.0087397 0.063461 -0.24129 -0.024552 -0.13314 -0.18073 -0.2317 0.049364 -0.066322 0.11143 0.2184 -0.14784 -0.12682 -0.057992 -0.031925 0.1873 -0.45635 0.039732 0.080827 0.0032118 -0.066035 0.12624 -0.054841 0.15046 -0.12901 -0.31267 0.28707 -0.44847 0.3349 -0.1769 0.015145 -0.067334 -0.16395 -0.28718 0.0667 0.28003 -0.026541 -0.21847 0.13721 0.065061 0.19696 -0.15491 -0.14982 0.095007 -0.095613 -0.41345 -0.17522 -0.022628 0.33676 -0.26057 -0.050955 -0.21794 0.31215 -0.23314 -0.1514 0.13424 -0.39232 0.094462 -0.18895 -0.13497 -0.13107 0.15595 0.037269 -0.059745 0.085378 0.14499 -0.15445 -0.16987 -0.22873 0.12145 -0.21872 0.0046054 -0.001805 -0.33936 -0.20615 -0.070513 -0.10362 0.019877 -0.12107 -0.2918 0.21592 -0.11441 0.080452 -0.061222 -0.084744 0.16887 -0.18089 0.095156 0.022967 0.046055 -0.14262 -0.10529 -0.10899 -0.18957 -0.06486 -0.17838 -0.1826 0.19335 0.04955 -0.119 -0.004861 0.028572 -0.25154 0.11428 0.14433 -0.35678 -0.056406 -0.085521 -0.14633 -0.44064 -0.060917 -0.071236 -0.4836 -0.19198 -0.1669 -0.1048 0.025474 0.32306 0.034484 0.19436 -0.22568 -0.13245 0.018958 -0.030435 0.28721 0.24889 -0.16664 0.23801 -0.2054 -0.3219 0.042289 -0.35039 -0.12527 -0.0054202 -0.093888 -0.15524 -0.057851 -0.068964 -0.19713 -0.21352 -0.018004 -0.36591 0.068588 0.0096778 -0.10347 -0.2096 0.21718 0.065114 -0.036165 -0.095166 -0.12884 -0.16326 0.053882 0.033204 -0.097023 -0.14507 -0.14013 0.011011 -0.073956 -0.030648 -0.093175 0.06933 -0.15563 -0.19345 -0.18096 -0.13582 -0.29077 -0.053923 -0.25504 0.12883 0.021701 0.33484 0.01617 0.16781 -0.16065 -0.023234 0.011392 -0.17036 -0.027055 0.11249 -0.30951 -0.12085 -0.21198 0.1767 -0.3618 -0.015772 0.06831 0.12769 -0.13845 0.12543 -0.096243 -0.12114 -0.11366 0.013267 -0.0098129 -0.073208 0.034143 0.11441 -0.13604 0.077543 0.0834 0.12828 0.11229 0.21821 -0.097178 -0.096695 -0.025805 0.11881 0.28078 0.13402 -0.070084 0.067564 0.068525 0.054413 -0.02034 0.12763 0.047409 -0.12334 0.10835 0.055572 -0.090152 0.122 0.19576 0.19871 0.20088 0.31147 -0.03483 0.33318 0.35064 0.07903 0.045409 -0.11509 0.20266 -0.061939 0.093864 0.19959 -0.015529 -0.012166 -0.11062 0.013411 -0.13788 0.062062 0.031857 0.029529 0.18706 0.29651 0.147 0.40297 0.37024 0.46663 0.38701 0.19979 0.59404 -0.097758 0.29731 0.26638 -0.0085052 0.14188 0.20791 -0.0047553 -0.11741 0.085056 -0.031013 -0.13239 -0.14296 -0.36213 -0.24938 0.10087 0.020858 -0.1791 0.11123 0.19818 0.14929 0.26519 0.24981 0.20235 0.076653 0.13738 0.22375 0.097355 0.27212 0.085642 0.13214 0.20413 0.41376 0.1995 0.29057 -0.08725 0.078504 0.034868 0.12862 0.010115 -0.26128 0.18012 0.12268 0.38884 0.064223 0.29595 -0.025522 0.046682 0.020238 0.10855 -0.0004483 -0.16042 -0.15655 -0.62647 -0.27844 -0.13304 -0.33095 -0.22716 -0.049674 0.066643 0.13195 0.14046 0.17145 -0.062503 -0.13169 -0.2961 0.058443 -0.001694 -0.067162 0.11715 -0.14547 0.12681 0.02528 0.049541 0.33836 -0.26531 0.12836 0.18552 -0.15447 -0.032494 -0.01546 0.016919 -0.79671 -0.52119 -0.27753 -0.40798 -0.39787 -0.30722 -0.10172 -0.23175 -0.10344 0.26015 0.13494 0.016944 0.23107 0.12635 -0.098539 -0.13995 0.018269 -0.059974 -0.007316 -0.12042 -0.069851 0.044159 -0.087395 -0.047647 -0.016804 -0.2363 -0.2358 -0.13282 -0.17974 -0.12467 -0.41338 -0.61461 0.0087293 -0.041464 -0.25502 0.1347 0.00042286 0.12945 0.18887 -0.034439 0.2023 -0.05158 0.042822 0.13722 0.13518 -0.037769 -0.065614 0.086906 -0.020241 0.12374 0.014182 -0.13486 -0.23617 0.036037 0.0020898 -0.15214 -0.059482 -0.06136 -0.055232 -0.075293 -0.36035 -0.078734 0.17115 -0.2848 0.055874 0.16988 0.23909 0.018032 -0.080901 0.04342 0.1176 0.10466 -0.046344 0.073779 -0.015173 0.12404 -0.11834 -0.016154 0.0732 -0.089479 -0.49836 -0.032856 -0.16883 0.096474 -0.013842 -0.0048154 -0.21951 0.090879 -0.29988 0.06073 0.12121 -0.10589 -0.12226 0.0093976 -0.26871 0.18051 -0.19261 -0.085975 0.11894 0.17711 0.20554 -0.37351 0.15394 -0.034109 -0.041363 -0.15086 -0.27952 -0.11489 -0.22564 0.052414 -0.060235 -0.069642 -0.062945 -0.2865 0.02586 0.017197 -0.016553 0.091132 0.012249 0.16765 -0.022725 0.13079 0.43787 0.24434 -0.12967 0.086614 -0.015538 -0.14498 0.072202 -0.10727 -0.053573 0.20216 -0.10056 -0.095953 -0.081297 -0.28792 -0.0059018 -0.10752 0.082511 -0.15263 0.082403 0.24244 -0.039476 -0.11194 -0.078857 -0.056772 0.15752 -0.016719 0.021224 -0.054295 -0.01408 -0.081386 -0.1711 0.12553 0.015882 0.19347 0.10274 0.26098 -0.088192 0.245 -0.23992 0.037765 0.072342 -0.054809 0.16219 0.082459 0.10638 0.10067 -0.080981 -0.23375 0.22762 -0.24934 -0.21662 -0.015119 -0.071556 -0.0060609 -0.16564 -0.054631 -0.0044122 -0.41527 0.089034 -0.17566 -0.098842 -0.047099 -0.043743 0.090707 0.10746 -0.21379 0.051721 -0.056197 -0.13428 0.066121 -0.21402 -0.058604 -0.0077302 0.013428 -0.02171 0.13782 -0.18418 0.089654 -0.14941 0.040189 0.057423 0.11195 -0.14669 0.11487 0.36731 -0.14238 0.0073788 -0.2181 0.13393 0.0061579 -0.15001 -0.057931 0.13513 0.00094233 -0.079102 0.17397 -0.06498 0.089946 -0.048787 0.021279 -0.17041 -0.049144 0.14366 -0.24068 0.20363 -0.074079 -0.11403 0.054754 -0.052601 -0.10393 -0.13573 -0.00091813 -0.26947 -0.091318 -0.14684 -0.043345 0.13045 0.096047 -0.15212 0.001591 -0.10856 0.12757 -0.21905 0.045796 -0.090519 -0.11012 -0.17035 0.14451 -0.22675 0.020541 -0.024133 -0.17823 0.12711 0.028037 -0.057528 -0.20023 -0.23046 -0.35155 0.077629 -0.097079 0.27429 -0.14997 -0.18012 0.027819 -0.22448 -0.17704 -0.27715 -0.082195 0.037359 0.021748 -0.22471 -0.02841 0.044852 0.027805 -0.032989 -0.29663 0.14839 0.028886 0.047514 -0.17792 0.075558 0.028683 0.0036881 0.056108 0.2924 -0.29315 -0.031039 0.15429 -0.059244 0.29224 -0.26446 0.22031 0.12847 0.082969 0.28799 0.016383 0.031369 -0.095456 0.28482 -0.18797 0.0042069 -0.026487 0.22475 -0.21116 -0.16566 -0.29701 -0.0066397 -0.20573 -0.040158 -0.057281 0.11748 0.20368 0.28634 -0.42484 -0.19734 -0.063812 0.10423 0.070078 -0.017095 -0.23666 -0.078197 -0.11587 -0.11033 -0.37084 -0.079786 0.022184 0.033674 -0.01831 0.097117 -0.22545 -0.04975 0.23355 0.050476 0.18154 -0.12031 -0.046577 -0.18808 -0.053291 -0.12373 -0.075441 0.47858 -0.348 0.060444 0.021657 -0.081704 0.26641 -0.039808 0.012901 0.065814 0.23108 0.022094 0.14494 -0.18904 -0.14599 -0.20611 0.011838 -0.18174 0.026125 -0.10685 0.0204 -0.012805 -0.2718 -0.094968 -0.16834 0.34106 -0.14293 -0.007458 -0.2212 -0.13216 -0.32021 0.15449 -0.19164 0.074983 -0.084401 0.11037 0.19432 0.010907 -0.46029 -0.010587 -0.16328 0.074208 0.062266 -0.17902 0.1788 0.063558 0.067655 0.041605 0.2116 0.11849 -0.2905 0.1962 -0.0073498 0.16704 -0.35666 0.24492 -0.034229 -0.23145 0.12588 0.029047 0.18157 -0.086581 -0.065658 -0.33023 -0.12626 0.1872 -0.040361 -0.22594 0.3904 -0.055286 0.067261 -0.094534 0.12733 0.037558 -0.024099 0.12784 0.02911 -0.20437 0.013866 -0.12982 -0.05294 -0.48604 -0.1997 -0.24674 -0.27293 0.19173 0.079365 -0.30398 -0.087254
0.71546
0.058198 -0.53755 0.28193 -0.12176 -0.085557 0.18599 0.10092 -0.12999 0.033311 0.046932 0.1566 -0.0038081 0.14326 -0.16591 0.11161 -0.010021 0.19112 -0.039899 0.18491 0.02837 0.31062 -0.0332 -0.11614 -0.21386 0.059673 0.21868 0.090918 -0.11918 -0.18633 0.010785 0.021961 -0.22581 -0.084328 0.32297 -0.087746 0.15903 -0.030293 -0.34827 -0.022768 -0.0076825 -0.26513 -0.15682 0.10049 0.12745 -0.07081 -0.048146 0.1024 -0.049081 0.11586 0.20428 0.028836 -0.15302 -0.39387 -0.0676 0.44045 0.49907 -0.070518 -0.044246 -0.12587 0.14743 -0.0063561 -0.043885 -0.023082 0.18102 -0.28417 0.041584 -0.093991 -0.0047467 0.12724 -0.30806 0.042116 -0.11207 -0.087707 0.12891 0.078222 -0.30467 0.010726 0.18081 0.21078 -0.089845 -0.2706 0.001129 -0.075043 0.16279 0.034955 -0.036015 -0.33178 -0.010922 0.29649 -0.15671 -0.14196 0.046294 0.22933 0.07374 0.055508 -0.12266 0.070574 -0.081718 0.12942 -0.017957 -0.09708 -0.036359 0.25988 -0.061819 0.19531 -0.33558 0.20655 0.16392 0.20441 -0.0069179 -0.062294 -0.011233 -0.12406 0.096648 0.17452 -0.082798 -0.013943 0.038997 0.095987 -0.10529 0.013869 0.048532 -0.061848 -0.033638 0.028402 0.16131 -0.027719 0.2368 -0.23358 -0.19534 0.1094 0.087607 0.11841 0.01616 0.024134 0.16056 -0.16467 0.057542 0.1036 0.31096 -0.0091679 0.00013955 0.098889 -0.11446 -0.13518 -0.010666 0.087489 -0.16457 -0.11987 0.037408 -0.32147 -0.053675 0.1296 0.16969 -0.002923 -0.19869 -0.11476 -0.17449 0.014753 -0.1032 0.39008 -0.18935 -0.028187 0.025457 0.04101 0.047799 0.0011297 0.14087 0.047323 0.25966 0.071887 0.033326 0.10217 -0.21026 -0.057437 -0.024659 -0.14263 -0.14777 -0.10416 0.018029 0.44225 0.081299 -0.084108 -0.070559 -0.056942 0.18938 -0.12977 -0.11975 0.10763 0.082505 0.34958 0.092106 -0.14626 0.22631 -0.077875 0.21382 -0.14582 0.04793 0.044802 -0.22339 0.29811 -0.28944 -0.07903 -0.30213 -0.039095 -0.20738 0.10867 0.10938 -0.13776 0.0028087 -0.42952 -0.23469 -0.13705 -0.038086 0.090747 -0.11703 -0.21474 -0.29359 0.015305 0.052515 -0.0582 -0.0085311 0.002113 -0.50186 -0.083519 0.5217 -0.034692 -0.22075 -0.0028872 -0.27926 -0.080871 0.13632 0.056176 -0.24966 -0.25525 -0.040188 -0.42515 -0.082185 0.092004 0.23781 -0.10578 -0.15489 0.090357 0.10486 0.32018 -0.14995 -0.031123 -0.081287 0.21587 -0.0091172 0.23879 0.1127 -0.15765 0.12597 -0.14138 -0.053179 0.10647 0.060818 -0.3653 0.054951 0.11095 0.041826 -0.049579 -0.32016 -0.26228 -0.079799 0.14477 0.085424 -0.01729 -0.22544 -0.090836 -0.30579 -0.29694 -0.24382 -0.12141 -0.40769 -0.10481 -0.077572 0.048229 0.19152 -0.40426 -0.37418 -0.22269 -0.098767 0.16012 0.1196 -0.09333 -0.071786 0.06257 0.0059575 -0.072289 -0.16164 -0.16168 -0.15924 -0.033224 0.27908 0.17903 0.27114 -0.095795 -0.07876 0.048027 -0.18184 -0.0073777 -0.040608 -0.14569 -0.094636 0.14891 0.023103 -0.036906 0.027683 0.32051 -0.18499 0.013834 0.1867 -0.23746 0.52146 -0.097742 -0.19736 0.18631 0.0020998 0.18159 0.16667 0.093866 -0.10073 -0.15342 -0.011372 -0.27752 0.045167 -0.13767 0.033428 -0.35024 -0.077224 0.027897 -0.047063 -0.066737 0.019282 0.15218 -0.057305 0.34445 0.051261 0.05736 -0.070309 0.1095 -0.053341 0.023652 -0.21642 -0.10921 -0.091754 -0.080422 0.1297 0.211 0.10533 0.1323 -0.10948 0.36022 -0.15034 -0.025511 0.0089247 0.20489 -0.0016509 0.080895 -0.034087 -0.072844 0.10137 -0.24744 -0.026859 0.079729 -0.29607 0.18193 0.27448 0.15663 -0.24962 0.30335 -0.21535 -0.0016235 -0.18943 0.061521 -0.016044 -0.14964 -0.084231 0.037516 -0.22308 -0.22335 -0.070635 0.11083 -0.21176 -0.4121 -0.13488 -0.19969 -0.28435 0.11571 0.026288 -0.3208 -0.019043 -0.20546 0.015402 0.15805 -0.21304 0.18382 -0.13443 0.25169 -0.12318 0.014735 0.4599 0.0086425 0.040769 -0.23569 0.093687 -0.31507 0.052122 0.24544 -0.16749 -0.075532 0.093394 0.10294 0.122 0.051861 -0.11485 0.21061 -0.057218 -0.45853 -0.11146 0.035587 -0.029384 -0.53213 0.27369 0.003313 -0.15057 -0.096481 0.13879 -0.10871 0.048299 0.030738 0.027849 0.13353 -0.083742 -0.082864 -0.062714 -0.024291 0.036678 -0.073435 -0.32575 0.18288 0.28509 0.21024 0.12366 -0.05664 0.061653 0.082629 -0.10032 0.015902 0.2405 -0.10267 -0.22583 0.074059 -0.011563 0.029478 -0.091746 0.1823 -0.046156 -0.24789 0.12027 -0.14165 0.022488 0.12083 0.20191 -0.22337 -0.2044 0.34139 -0.13679 0.033896 0.13457 0.0090774 -0.05929 -0.14581 0.043326 0.20039 0.14836 0.019851 -0.38464 -0.060868 -0.097424 0.008714 -0.02203 0.15768 0.20806 0.21928 -0.15545 -0.19001 -0.018134 0.1045 -0.1557 -0.3301 -0.02909 -0.059917 0.11037 -0.25745 0.457 0.074474 0.3399 0.061409 0.047332 0.029704 0.2207 -0.20236 -0.092596 -0.28892 0.22957 0.035988 -0.20035 -0.1406 0.0059848 0.25156 0.35209 0.16602 -0.22102 -0.15396 -0.34309 -0.087272 -0.27185 -0.3814 0.18938 -0.036152 -0.076976 -0.035921 0.15115 0.11638 -0.053472 -0.10296 0.20688 0.35331 -0.23901 0.013691 -0.17048 0.10098 -0.075923 -0.13925 -0.32103 0.27528 0.12302 0.0072835 0.049846 -0.40865 -0.18109 -0.006599 -0.15568 -0.092302 0.26757 -0.19112 0.18759 0.25474 -0.12984 0.19805 -0.12452 0.010453 0.10565 -0.26054 -0.040386 -0.55157 0.23176 -0.28554 0.02606 0.36052 0.069358 -0.11793 -0.32318 -0.18278 -0.1101 -0.1322 0.073563 0.19278 0.31489 -0.028409 0.12547 -0.0027174 -0.15029 -0.087359 -0.073759 -0.35114 0.22119 -0.34887 0.31529 -0.13358 0.35609 0.02245 0.10128 -0.040989 0.02296 0.12783 0.17396 0.017062 0.030081 -0.064929 0.19927 -0.095701 0.45051 0.031254 -0.070784 0.23604 -0.08597 -0.36456 -0.31879 0.15828 0.065386 -0.26012 -0.13142 -0.09488 0.11918 0.10706 0.11728 -0.091147 -0.13047 0.036064 0.14389 0.092019 -0.082825 -0.399 -0.28444 -0.17835 -0.22366 0.38396 -0.14624 0.26639 -0.0062722 0.0087011 0.11581 0.034303 -0.12471 0.22775 0.12482 0.18504 -0.10367 0.22381 0.19442 0.033115 -0.059571 -0.11184 0.31277 -0.12849 -0.033368 0.033254 -0.1636 -0.37255 0.1167 -0.12695 0.10795 -0.0053125 -0.19959 0.059225 0.090889 0.24329 0.095979 -0.16782 -0.030606 -0.26352 -0.084546 0.065365 -0.21944 -0.13998 -0.034923 -0.34107 0.12579 0.078102 -0.54772 -0.18685 0.31864 -0.019018 -0.058833 0.17765 -0.52913 0.042388 0.28948 -0.032179 -0.035842 -0.20383 -0.040076 -0.26997 -0.014806 0.11829 0.13233 0.06885 -0.19177 -0.061765 -0.26136 -0.12615 -0.4031 0.1802 -0.24586 0.11746 0.095729 0.4233 -0.22585 -0.16865 -0.1472 0.33736 -0.17476 -0.074642 -0.21195 -0.057103 0.090994 -0.082341 -0.13651 0.37262 -0.012647 -0.27316 -0.34431 -0.42693 0.088207 -0.0088825 -0.056412 0.13925 0.14861 0.014159 -0.018124 -0.20455 0.084844 0.043813 0.30786 -0.18472 0.0045961 0.016901 -0.14075 0.16508 0.30233 0.20266 -0.28482 -0.24999 0.24748 -0.44067 0.15223 -0.046302 0.08588 -0.25237 -0.0011231 -0.053406 0.0021632 -0.070124 0.14394 -0.11052 0.30687 -0.10937 -0.033348 0.23982 0.037916 0.09644 0.044901 -0.03821 0.39238 0.21085 -0.016911 0.13139 0.049431 -0.31334 -0.16618 0.056626 0.3902 -0.4138 0.015244 -0.14429 -0.27133 0.25874 0.05014 0.1066 -0.26636 0.076855 -0.17461 -0.058537 -0.35595 -0.19128 0.18858 0.24955 0.16923 -0.13309 0.014191 0.161 -0.10364 -0.065121 -0.054 -0.034113 0.13915 -0.29487 -0.2068 0.028618 0.034842
-0.16279
-0.23875 0.26261 0.015689 0.034202 -0.049746 -0.024322 0.18971 -0.21438 -0.28574 -0.17242 -0.12619 -0.10236 0.056341 -0.03833 0.019962 -0.20425 -0.036142 0.098834 0.1149 -0.22587 -0.09306 -0.17153 0.058031 -0.25291 -0.094004 -0.1082 0.50921 0.087129 -0.56105 -0.26783 -0.1893 0.039196 0.16133 0.27579 0.15277 -0.069711 0.064462 -0.09802 -0.0033992 0.5384 -0.11423 -0.20393 0.27993 -0.18352 0.021495 0.13686 -0.076751 0.20916 -0.020173 -0.28959 -0.096395 -0.051581 0.017147 -0.040375 0.13515 0.03057 0.2403 0.18346 0.082308 -0.046665 -0.092015 0.11008 0.04821 0.1806 0.16974 -0.14218 0.53967 -0.43632 -0.038835 -0.090583 0.16682 0.12585 -0.29783 0.14462 0.1898 -0.029368 0.35247 0.24165 0.0060796 0.13043 0.028016 -0.043062 0.12115 0.052615 -0.041956 0.11852 -0.095252 -0.10492 0.068195 -0.063796 -0.045731 0.0037476 0.24347 -0.26932 -0.17353 0.027314 -0.45512 -0.32284 -0.042258 -0.16445 -0.13834 -0.093957 0.21203 -0.38436 -0.096718 0.060173 -0.098393 0.17255 -0.1156 -0.13329 0.11824 0.13247 0.17437 -0.40479 0.029083 -0.23783 0.00012746 0.14894 -0.14411 -0.18137 -0.12608 -0.29432 0.21147 0.053389 -0.060974 -0.038697 0.30783 0.17043 -0.47307 0.090941 0.05845 -0.15787 0.019931 -0.20277 -0.050821 0.32015 0.077677 -0.089328 0.040029 0.071431 -0.07096 -0.034235 -0.14015 0.20297 -0.33135 0.19282 0.18539 -0.22049 0.1853 -0.1447 0.23558 -0.057188 -0.20833 -0.15227 -0.13386 -0.12012 0.037224 -0.096849 -0.40034 -0.12645 -0.25111 0.13117 -0.17395 -0.047707 0.050199 0.016259 -0.097068 0.2292 0.10131 0.010826 -0.15162 0.041716 -0.086526 -0.070436 0.15575 -0.15666 -0.10476 -0.051626 -0.036694 -0.13388 -0.3457 0.084952 0.046816 0.07571 -0.070087 -0.21125 -0.016194 0.12084 0.031009 0.1815 -0.04204 0.24696 0.042025 0.066611 0.18066 -0.10854 0.026785 -0.26285 0.34511 0.10454 0.23447 0.24234 -0.32364 -0.12968 0.14478 0.055703 0.066678 0.33223 -0.39075 0.15017 -0.2476 -0.14434 -0.44598 -0.26206 -0.21359 -0.11663 -0.14999 0.070849 0.11277 -0.079353 0.11656 0.059385 0.0056841 -0.0010714 0.33197 0.089976 -0.26578 0.19135 0.048268 -0.26608 0.07898 -0.38326 0.036891 -0.18265 -0.16732 0.17575 -0.091242 0.19351 0.33607 -0.23766 -0.042657 -0.059342 -0.21484 -0.2258 -0.17055 -0.25738 0.071967 0.11408 0.072084 -0.13138 0.17481 0.051784 -0.033558 -0.10586 0.083095 0.15759 0.11355 0.056981 -0.0024612 -0.16041 -0.0025967 0.12462 -0.094032 0.013345 -0.089213 -0.31251 -0.14848 0.016378 -0.10796 -0.34078 0.10213 -0.68527 -0.047412 -0.1424 0.14314 0.025107 0.051407 -0.28156 0.06024 -0.18526 0.044989 0.089799 0.037325 -0.059026 0.082957 0.17721 0.15317 0.18199 -0.0028803 -0.2735 -0.031474 0.064986 -0.082685 -0.34433 -0.17272 -0.088566 -0.032457 -0.57481 0.072625 -0.34023 0.15735 -0.35842 -0.1963 -0.051822 0.10222 -0.016311 -0.05477 -0.26174 0.0034337 0.040116 0.12699 0.13092 0.34431 -0.18614 0.21388 0.13674 -0.0043281 -0.04768 0.048544 -0.16278 -0.16627 0.081082 0.14954 -0.13741 -0.29219 -0.1469 -0.22875 0.10899 -0.18576 -0.26877 0.10715 0.18535 0.086873 0.15623 0.042804 0.17445 -0.10342 -0.0015629 0.16392 0.023151 0.25104 -0.069728 -0.058987 0.17333 -0.17361 -0.040202 -0.33296 -0.13407 0.062923 -0.16901 -0.18982 0.039686 0.011255 -0.24357 -0.084153 -0.063833 0.038214 -0.22005 -0.44642 -0.2114 0.067446 0.051769 0.022719 0.35467 0.23562 0.083482 0.19391 -0.1337 -0.17545 -0.10267 0.29997 -0.00081515 0.029467 -0.1573 -0.16758 0.27118 -0.23776 0.0060977 -0.55242 -0.067304 -0.34037 -0.12122 -0.33078 -0.27184 0.15895 -0.30037 0.14597 0.034571 0.35607 -0.074491 -0.07845 -0.17115 0.0097491 -0.24861 0.098003 0.061394 -0.010977 0.064587 -0.088992 -0.1506 -0.13105 0.013565 -0.089711 -0.21795 -0.079068 -0.10877 -0.16963 -0.18102 0.11544 0.29315 -0.00052389 -0.28039 -0.3761 -0.24379 -0.28319 0.086304 -0.044168 -0.14794 0.054097 0.43327 0.085887 -0.31284 0.25453 0.091568 0.44802 0.18546 -0.16752 0.056141 -0.038664 -0.064134 -0.14911 0.059942 -0.17097 0.12739 -0.12454 -0.31006 -0.38177 -0.0089876 -0.1319 -0.074784 -0.29151 0.20056 0.2838 -0.07609 -0.021363 -0.41904 0.0054947 -0.18415 -0.35477 -0.33686 0.10316 -0.2609 -0.15602 0.090682 -0.30058 0.24335 -0.14716 -0.2618 -0.38488 -0.26281 -0.23024 0.17952 0.031485 -0.084703 0.13606 -0.076621 -0.39444 -0.063004 0.16976 -0.24886 0.14499 0.11978 -0.24161 -0.29738 -0.059851 -0.055999 0.11464 -0.29812 -0.46103 0.056603 -0.10169 -0.12012 -0.023163 -0.26008 -0.072802 -0.066732 -0.20793 0.13178 0.021266 -0.35293 -0.09205 -0.31811 -0.14109 -0.20306 0.13501 0.083588 -0.18822 -0.17934 -0.27393 0.29533 0.054428 0.017737 -0.088179 -0.20748 -0.21993 -0.20181 -0.043201 0.04274 0.17765 -0.21512 0.095465 -0.099278 0.31059 0.11223 0.12158 0.0083251 0.28835 0.071882 -0.14605 -0.2797 -0.020448 -0.23827 -0.0016107 -0.30889 -0.22857 -0.039674 0.023377 0.0011508 0.30872 -0.35137 -0.082604 0.17287 0.40469 -0.23961 0.15765 -0.020126 -0.097612 0.19262 0.10327 -0.18747 -0.33197 -0.18682 0.17305 0.061436 -0.065927 0.20224 0.00037657 -0.065173 0.12186 -0.17346 0.075228 -0.20357 0.03455 0.17448 0.20199 0.15954 -0.15842 -0.015342 0.025319 -0.39884 0.26524 -0.10473 0.12728 -0.082137 -0.064572 0.014718 -0.058821 0.051962 -0.18054 -0.46738 0.060227 -0.27559 -0.09952 -0.25226 -0.10088 -0.3002 0.25266 0.28874 0.25347 -0.33111 0.026949 -0.2451 0.059306 0.26898 0.097725 -0.12445 -0.25818 0.078841 -0.064203 -0.32618 0.069884 0.037314 -0.039275 0.042916 -0.16892 -0.096369 -0.043179 -0.3259 -0.12759 0.02426 -0.031357 -0.39396 0.089234 -0.071292 -0.14062 0.20572 -0.017009 0.19665 -0.35816 0.17936 -0.25121 -0.078858 -0.072849 0.045112 -0.10208 -0.16099 0.052667 0.25075 -0.20499 0.075151 0.0996 -0.10082 -0.12521 0.064717 0.024298 0.038344 -0.02578 -0.10792 -0.023788 -0.24608 -0.11427 -0.056936 -0.051401 -0.069992 -0.309 -0.28766 0.020739 -0.0057746 -0.17991 0.10842 -0.096697 -0.38015 -0.096234 0.13495 -0.36638 0.089736 -0.014323 0.019784 -0.16851 -0.08685 0.0567 -0.24192 -0.07772 -0.12095 -0.11712 0.010163 -0.18122 0.064401 -0.21311 -0.14521 0.13397 0.25979 -0.31577 -0.4021 0.067375 0.02323 0.14303 -0.31983 -0.10157 -0.029593 -0.27063 0.21164 0.50607 0.18171 -0.020217 -0.21459 0.056858 -0.25056 -0.12764 0.098966 0.27918 -0.1819 0.036786 0.11545 0.060762 -0.060461 0.12852 -0.10163 -0.02927 0.27457 -0.066476 -0.37632 -0.070614 -0.013442 0.064139 -0.038842 0.24566 -0.012758 -0.07384 0.29387 -0.070975 0.024781 0.15804 -0.019175 -0.18647 0.015641 0.44072 0.23501 0.1284 -0.44127 -0.13357 -0.056568 0.097663 -0.079842 -0.046386 0.039761 0.13887 -0.22976 -0.25886 -0.0048658 -0.21059 -0.046711 -0.052651 -0.36299 -0.10511 -0.1065 -0.17825 0.048544 -0.16364 0.04223 -0.26977 -0.046227 -0.091523 -0.304 0.10951 -0.22284 -0.088033 0.07796 -0.068243 -0.22337 0.12944 -0.33499 0.17933 0.29445 0.039057 -0.12454 0.071414 0.18569 0.021854 -0.11729 0.17797 0.064317 0.14709 -0.030092 -0.015199 0.1754 0.096681 -0.042843 0.017204 0.029517 -0.39042 0.21434 -0.062767 0.095659 0.027673 -0.14619 -0.10083 0.31658 0.20452 0.22443 0.16888 0.066582 -0.14817 0.1537 -0.020971 -0.044953 -0.12481 0.078254 -0.10294 -0.070757 -0.067348 0.17158 0.034574 0.31756
1.2526
-0.079163 0.059371 -0.27233 -0.015061 0.20054 -0.13045 -0.20405 -0.035098 -0.015435 -0.24132 0.082045 0.39761 -0.042697 -0.31017 0.33119 -0.11436 0.059826 0.07107 -0.038891 -0.40048 -0.00052124 -0.0068526 0.025204 0.056691 -0.16367 -0.085775 0.13284 -0.013021 0.11434 -0.29683 -0.15648 0.36712 0.079596 0.029968 0.4638 0.078989 0.13154 -0.055061 0.08486 -0.11794 0.16462 -0.016798 0.50147 0.079628 0.031292 -0.10474 -0.027934 0.033878 0.052416 -0.070523 0.13278 0.65213 -0.17366 -0.097716 0.056552 -0.087428 -0.14541 -0.35057 -0.28573 0.13057 -0.22346 -0.27676 0.57721 -0.12486 0.16276 0.19594 -0.11726 0.21308 0.044262 -0.11758 0.11283 -0.18747 0.29812 0.18983 -0.36202 0.047946 0.17322 -0.093629 0.023687 -0.23967 -0.057872 0.11918 0.041222 0.41357 -0.10575 -0.15181 0.029474 0.26332 -0.045783 0.0064402 -0.29987 -0.0025109 -0.23306 -0.17632 0.029842 -0.095245 0.071132 0.12569 -0.0030168 0.077893 -0.27667 -0.36157 -0.11149 0.044457 -0.057763 -0.1955 0.32179 0.27513 0.18613 0.059685 0.37503 -0.22408 -0.023881 0.019612 0.044721 0.002976 0.014831 0.19998 0.15006 -0.20399 -0.089117 0.3911 -0.16165 -0.13776 -0.0044363 0.10034 -0.010438 -0.23478 -0.14454 0.01972 -0.042441 -0.21168 -0.022559 0.17089 -0.10115 -0.30846 -0.011726 -0.12863 0.14196 0.021815 -0.056953 0.22665 0.23422 0.21799 0.0096079 -0.13641 0.22065 0.13897 -0.11321 -0.22353 -0.085526 -0.05411 -0.049723 0.018767 -0.10367 0.055737 -0.31993 -0.1439 0.053479 -0.1355 -0.15748 -0.30078 0.26196 -0.13146 0.075845 0.10015 -0.21909 -0.023427 -0.18649 0.17538 -0.2272 0.3249 -0.043037 -0.031801 -0.33586 0.054136 -0.12901 -0.019842 -0.31931 -0.12704 -0.088978 -0.21677 -0.020875 0.13588 -0.097287 0.039077 -0.16367 0.0301 -0.26025 0.076795 -0.12274 0.0091881 -0.015061 -0.65984 0.067542 0.068203 0.2147 -0.086909 -0.079605 -0.013226 0.016781 0.051423 0.070808 -0.14251 -0.059909 0.15436 -0.064588 0.11137 -0.050217 0.12987 0.10208 -0.02129 0.14772 -0.06018 -0.22332 0.1699 -0.079113 0.077262 -0.090153 0.038467 -0.16209 -0.066188 -0.084902 -0.04546 0.092755 0.049915 0.022342 0.11546 -0.24791 -0.054622 0.157 -0.27652 -0.032117 -0.21942 0.12409 -0.014448 0.049144 0.043768 -0.15321 -0.022458 0.0048171 -0.069159 0.063798 -0.2941 -0.087957 -0.20563 0.12207 -0.037906 0.12374 -0.3852 0.034022 0.060239 -0.14872 -0.11508 -0.12698 0.38122 -0.206 0.023026 0.11546 -0.019466 0.23485 -0.01627 -0.038813 -0.045733 -0.066251 0.080691 0.31673 -0.012552 -0.16367 -0.15341 0.21701 -0.009924 0.11658 -0.054102 -0.17028 0.044658 -0.16538 0.14461 -0.2294 0.2102 0.1099 0.088257 0.045256 0.024499 0.0010394 0.13396 -0.23734 -0.07765 -0.14378 0.072141 -0.034458 0.20773 0.29321 -0.032073 -0.073141 0.099017 -0.1083 -0.0035957 -0.053892 -0.11427 0.030159 0.047879 0.0098566 -0.29415 -0.017253 -0.15191 -0.17686 -0.46803 0.17362 -0.13819 -0.0092113 0.10314 -0.14805 0.33514 -0.019855 0.11758 0.047131 -0.22604 0.29829 -0.15832 -0.11585 0.044334 0.030442 0.049081 0.28869 0.35985 0.060633 0.21112 0.074561 -0.095448 -0.11517 -0.16145 -0.014934 0.075639 -0.17444 0.084793 -0.18426 -0.013907 0.03576 0.108 0.14876 -0.074656 -0.11265 0.26021 0.059824 0.21829 0.074237 0.12787 -0.11721 -0.18122 0.07896 0.19934 0.25095 0.12266 -0.0060682 0.05066 0.070435 0.31593 0.056261 -0.038516 -0.080794 0.11055 0.018797 -0.12663 0.10473 0.040911 -0.22385 -0.24995 0.21431 -0.261 0.26231 0.021524 0.22419 -0.074867 0.11849 -0.04817 -0.296 0.052681 0.10165 0.015743 0.22646 0.2592 0.22665 0.36858 0.38281 -0.18182 -0.012893 -0.35467 -0.078739 0.012499 -0.17989 0.0057 0.059675 0.0015283 -0.18268 0.081474 0.070979 -0.039576 0.038985 0.20652 0.19891 0.026422 -0.1041 0.097614 -0.016899 -0.12526 0.18251 0.2546 0.26818 0.39622 0.44443 0.061692 0.131 0.2448 0.34184 -0.083713 0.099751 -0.050227 0.26488 -0.024988 0.0071152 -0.078253 -0.086632 -0.12745 -0.15895 -0.17402 0.036489 -0.10303 0.022251 0.033996 0.16117 -0.14579 -0.2767 -0.074994 0.083581 0.20949 0.26881 0.2053 -0.12221 0.22996 0.057467 -0.30532 -0.0065832 -0.17137 -0.19874 -0.21944 0.049111 -0.042659 0.041528 0.10046 0.23284 -0.24202 -0.51382 0.1326 -0.023685 -0.032349 0.052482 -0.079853 -0.029442 0.12258 -0.047253 -0.00087857 0.18727 0.24172 -0.014435 0.012904 0.36264 -0.11794 -0.089166 -0.24858 0.1199 -0.32349 -0.14135 -0.021083 0.16249 -0.021181 -0.0030472 -0.15988 -0.37923 0.018509 -0.10335 0.044215 -0.081197 0.036205 -0.083967 -0.069155 -0.1769 0.19748 -0.11541 1.7616e-06 -0.088731 0.17762 0.26133 0.10899 -0.089261 0.053661 0.047453 -0.082918 -0.39156 -0.051993 -0.080441 -0.23215 0.033805 -0.06245 -0.17736 0.50406 0.1148 0.27248 0.20129 -0.038052 -0.20838 -0.20193 -0.19307 -0.081234 -0.078747 -0.19868 -0.17388 -0.010087 0.25584 0.17692 -0.083973 -0.17558 -0.14833 -0.096463 -0.38272 0.0086109 0.3117 -0.47514 0.23347 0.29571 -0.41237 -0.048547 -0.08761 0.048425 0.11264 -0.062299 0.38059 -0.098041 -0.50988 0.10594 -0.28121 -0.21045 -0.082411 -0.1372 -0.16226 -0.12374 0.21337 -0.2086 -0.1893 -0.063701 -0.22755 -0.25812 -0.15234 -0.16927 -0.22724 -0.06468 -0.0096854 -0.070175 -0.094022 -0.2116 0.26094 0.16916 -0.099238 0.16037 -0.028626 -0.34551 -0.015529 -0.16038 -0.35631 -0.16908 -0.125 -0.35676 -0.14089 -0.18447 0.092335 -0.065332 -0.026964 -0.00050488 -0.24571 -0.17653 -0.053373 0.0085515 -0.068747 -0.1279 -0.080429 0.29949 -0.35436 -0.13935 0.16259 0.034936 0.093892 0.1391 -0.35361 0.01754 -0.22581 -0.32035 -0.09466 -0.18185 -0.343 -0.10632 -0.24542 -0.021733 -0.132 0.18186 0.14692 -0.15848 -0.39565 0.044527 -0.20255 -0.2917 -0.19016 0.028009 -0.017916 0.21488 -0.24064 -0.14228 -0.074127 0.15826 0.11179 -0.12331 0.11231 0.019858 0.14646 -0.028187 -0.034634 -0.018808 -0.12505 -0.01102 -0.34499 -0.16489 -0.041432 -0.23169 -0.012016 -0.03622 0.070305 -0.11419 -0.21984 0.050911 0.1644 -0.10334 0.02077 -0.29891 -0.037758 0.00050103 -0.14704 -0.11823 -0.28542 -0.44796 -0.24418 -0.24589 -0.022316 -0.071587 -0.20999 0.11704 -0.26088 0.169 -0.032222 -0.27914 -0.1181 0.038462 -0.048635 -0.012067 0.16136 -0.20349 -0.16759 -0.346 0.1303 0.19098 0.064159 0.020477 0.26445 -0.025251 0.32123 0.16166 0.065652 -0.099904 0.22221 -0.47669 -0.12724 -0.15302 0.20762 -0.053504 0.018563 -0.13335 -0.21714 0.12363 -0.43714 -0.046626 -0.27214 0.075906 -0.026787 0.25403 0.32912 -0.24165 -0.16674 0.12444 -0.18909 0.24122 -0.027247 -0.10733 -0.051878 -0.10102 0.31637 0.24159 -0.038809 0.31907 -0.069302 0.076396 0.23855 -0.14701 0.0052168 -0.096042 -0.029966 0.02678 0.14133 0.14859 -0.12405 -0.076747 0.035517 -0.071545 -0.01328 -0.027399 -0.22938 0.15925 -0.070798 0.27934 -0.13068 0.067187 0.042732 0.2172 0.080248 -0.34262 0.11323 0.55244 -0.035388 -0.11092 -0.063181 0.07004 0.29849 0.14561 0.312 0.02958 0.24722 -0.2469 0.19649 -0.012641 0.015026 -0.028438 0.14839 0.3175 -0.19656 -0.62749 0.23057 -0.11548 -0.18485 -0.033943 -0.07132 -0.1489 -0.222 0.044586 0.25299 0.32147 0.14402 0.16694 -0.17915 0.0042965 -5.4046e-05 0.072267 0.089688 -0.10171 -0.21984 -0.20369 -0.34124 0.31457 0.29552 -0.25377 -0.08009 0.26289 -0.25063 0.010008 -0.091531 0.10872 -0.26767 0.31827
-0.75342
0.062554 -0.13783 -0.13553 -0.35292 -0.050732 0.24673 0.23016 -0.050038 0.29284 0.16885 0.018373 0.20785 -0.19295 0.11157 0.057623 0.045583 -0.043508 0.13716 -0.15805 -0.060872 0.16794 -0.34622 -0.12976 -0.04555 -0.21969 0.16183 -0.14114 -0.17131 -0.052341 -0.35871 -0.031015 0.0046656 0.16372 -0.051627 -0.24163 -0.054625 -0.23817 0.33163 0.24758 -0.0085519 0.19534 -0.042605 0.058448 0.099855 -0.025191 0.092091 -0.050254 0.0091114 0.013375 -0.27289 -0.15531 0.62211 0.21408 -0.047829 -0.098953 -0.25791 0.024728 0.11419 -0.014384 0.19237 0.021956 -0.012484 0.22429 -0.15618 0.022425 -0.16302 0.29511 0.3727 0.13369 0.043592 0.23712 0.04675 -0.030676 -0.045665 -0.35 -0.12638 -0.024666 -0.0050214 0.046039 0.11245 0.057157 0.35868 -0.03886 -0.0087435 0.087723 0.16358 -0.19386 0.045444 -0.16835 0.36516 -0.023946 0.021647 0.31537 0.1482 0.24103 -0.089758 0.070577 -0.0088349 0.18536 -0.098597 0.073149 0.066518 -0.22188 -0.090928 -0.095591 -0.10919 -0.16119 0.058521 0.040962 0.14185 0.14576 0.034859 0.11856 0.080298 0.2062 0.20246 -0.054187 -0.057961 0.16283 0.068666 -0.071504 0.20266 -0.030254 0.40196 0.21935 0.1025 0.07417 0.1548 0.19788 -0.097068 0.13194 -0.05182 0.013072 -0.19543 -0.18036 0.018439 -0.27254 -0.03967 0.27855 0.41141 0.040415 0.086264 -0.086472 0.010464 0.088198 0.060118 0.21678 -0.078218 0.065683 0.0664 0.16882 0.04174 0.022261 0.26996 0.090657 0.042928 0.00022469 0.025488 -0.096537 0.025298 -0.11119 0.0867 0.16986 -0.010562 0.15644 0.077013 0.062813 0.17333 0.03471 0.29848 -0.25712 0.33421 -0.20383 -0.16379 -0.068395 -0.14945 0.093423 -0.022947 0.13158 0.27535 0.12645 0.22264 0.23518 0.15909 0.14604 0.14667 0.28136 0.076582 0.12532 0.097875 -0.076279 -0.23097 -0.19145 -0.2113 0.085818 0.1739 0.01253 -0.018362 -0.040304 0.30959 0.23682 0.1363 0.066108 0.1254 0.010087 0.054597 -0.0033372 0.014138 0.2855 0.17855 0.28277 0.24392 0.33614 0.083261 0.13408 0.026414 0.17208 0.025986 0.036511 -0.1125 0.076054 -0.083582 0.33667 -0.07546 0.076722 -0.071389 -0.22533 0.094924 -0.16641 -0.11133 -0.30482 -0.077369 0.19428 -0.045808 -0.011764 0.060521 0.14276 0.13443 0.24991 0.28356 0.16932 0.18496 0.19103 0.27361 0.085855 0.065165 0.196 0.057145 0.12469 -0.35631 0.22597 0.18658 -0.28141 -0.013452 0.047225 -0.067027 -0.16303 0.086509 0.26418 -0.03409 -0.031192 0.16208 0.10889 -0.074168 -0.037183 0.14155 0.28229 0.2949 0.18886 0.19261 0.033471 0.026251 0.086176 5.7438e-06 0.023859 0.15122 0.17731 -0.16331 -0.079604 -0.20655 0.12835 -0.18967 -0.10349 0.031538 0.25709 0.21787 0.099013 0.021623 -0.12019 -0.13209 0.069035 0.00055068 -0.10459 -0.21369 0.041519 -0.065754 0.052075 0.016683 0.073119 0.14005 0.11265 0.14708 0.0070223 0.3892 0.024013 0.15664 -0.03577 0.056905 -0.057974 0.10318 -0.13896 -0.095252 -0.293 -0.14519 0.17607 -0.067484 0.042501 -0.0023962 -0.14346 0.023978 -0.0056257 0.067852 0.14191 -0.044954 -0.057033 0.097091 0.099472 -0.0086578 0.1472 0.056594 0.15736 -0.013789 0.18105 0.43262 -0.13269 0.047941 0.117 0.036486 0.17206 0.25014 0.20745 0.014812 -0.053321 0.10542 -0.0172 -0.10724 -0.038109 -0.10816 -0.2664 -0.27214 -0.030294 0.057128 -0.061656 0.053218 0.041014 0.10069 -0.019417 0.1184 0.16721 0.13153 -0.34692 0.089253 -0.050792 0.033797 -0.17339 -0.002244 0.14782 -0.31319 0.12672 -0.20407 -0.29848 -0.14955 -0.046441 -0.094461 -0.079678 -0.23578 -0.061586 0.041194 0.055035 -0.023552 -0.034601 -0.021557 0.0061103 0.0099109 0.045006 -0.051218 -0.094994 -0.41054 0.20529 -0.40824 -0.051616 -0.10466 0.19912 -0.20195 -0.10028 0.20297 -0.00015936 0.23129 -0.15223 -0.15101 -0.018312 -0.12445 -0.10931 -0.14487 -0.22413 0.096496 0.011599 0.00041954 -0.087248 -0.18245 -0.01893 -0.069755 -0.010931 0.087279 -0.037471 -0.24963 -0.24291 0.11306 -0.053481 0.1614 0.0066918 0.064508 -0.15026 -0.13215 -0.11311 -0.066939 0.058898 0.0199 -0.11534 -0.22504 0.06476 -0.11601 -0.11999 -0.044152 -0.033499 0.042228 -0.042123 0.026792 0.015677 0.037659 -0.07586 0.0040527 -0.32224 0.21639 -0.081942 -0.18453 -0.1654 0.11842 -0.021903 0.10594 -0.12667 0.071211 -0.060247 -0.048103 -0.0034222 -0.20825 -0.031133 0.039501 -0.12578 0.072515 -0.11827 -0.081763 -0.1847 -0.098948 -0.019811 -0.031683 0.022204 -0.14749 -0.076505 -0.2 0.13295 -0.26523 0.1937 0.15477 -0.19533 -0.18058 -0.026002 -0.35084 -0.037219 0.10524 0.089671 0.17682 -0.077073 -0.12728 0.02201 0.0090777 -0.03259 -0.14438 0.15477 -0.090158 -0.01623 -0.099456 -0.078673 0.0094787 -0.26195 0.10374 -0.073488 0.05298 -0.037329 0.015177 -0.19775 -0.080401 0.095654 -0.1574 -0.15331 -0.41821 0.20152 0.13874 0.14831 -0.022531 -0.093888 0.17597 -0.23902 -0.049356 0.092476 0.027778 -0.20303 -0.071175 -0.22729 0.10015 -0.067438 -0.03065 -0.0016508 0.03313 -0.14819 -0.091331 0.4109 0.17866 -0.09935 0.22361 -0.042391 0.061769 -0.042545 -0.06632 -0.068137 -0.0097774 -0.0099414 0.113 0.20793 -0.27046 0.22992 -0.064078 0.020276 -0.08507 -0.00097211 0.0062352 -0.056779 -0.25289 -0.16551 0.12675 0.023532 -0.14489 0.25017 -0.09792 -0.28189 0.10142 0.074986 0.045753 0.22333 0.35051 0.19859 0.021612 -0.048137 0.086682 0.19265 0.012299 0.14981 0.20348 0.0088688 0.080811 -0.068214 -0.056191 0.041964 0.052762 -0.09881 0.10358 0.023175 -0.23153 -0.062015 0.053257 -0.10463 0.038544 0.34315 0.021187 -0.20892 0.053765 0.037218 -0.13614 -0.068489 -0.025917 -0.20664 -0.058004 0.07642 0.021343 0.16688 0.071377 0.21059 -0.10451 0.091834 -0.0064385 -0.17574 -0.1827 -0.043403 -0.21226 -0.018787 -0.072281 -0.02237 -0.092846 0.26978 -0.090341 -0.0035039 0.14184 -0.20039 0.13901 -0.24281 -0.093037 -0.25023 -0.035528 0.081885 0.093617 0.10824 -0.10418 0.24509 -0.003755 0.088915 0.16425 -0.10185 0.1368 -0.044809 0.17143 0.1156 0.089805 -0.11516 0.044426 -0.11505 0.0041002 -0.21484 0.10818 0.053314 0.38396 -0.034791 0.064423 -0.28103 -0.33902 -0.01315 0.18125 -0.37187 -0.092213 0.23398 0.022629 0.1131 0.021158 -0.0010577 -0.016867 -0.034899 0.085127 0.14503 -0.054425 -0.012815 0.035898 0.18462 -0.11071 -0.013615 0.05686 -0.10174 0.084639 -0.1541 0.056219 -0.14048 -0.095426 0.22411 0.18748 -0.0050506 -0.4426 -0.25875 0.21336 -0.19022 -0.11278 -0.080787 -0.23086 0.031416 -0.10235 0.089626 -0.1775 0.000232 -0.0051631 0.042347 0.072346 -0.10362 0.20834 0.030288 -0.094315 0.14611 0.044948 0.14458 -0.02353 -0.0011426 0.08721 0.13435 0.19611 -0.34692 -0.14877 -0.0083625 0.035797 -0.39152 -0.095483 0.39135 0.32714 0.30611 0.014704 0.17076 0.15359 0.15362 0.1102 0.17919 -0.045537 0.24635 0.099383 0.21519 0.35059 0.31327 0.22493 0.36208 0.1148 0.063535 -0.083676 -0.53973 -0.19243 0.29407 0.057045 -0.14993 -0.083049 -0.23857 0.18035 -0.01175 -0.051774 0.057198 0.3232 0.23808 0.25244 0.41616 0.26973 0.31556 0.14709 0.30502 0.12505 0.19819 0.095542 -0.13001 -0.14315 0.17881 -0.32265 0.063571 -0.022525 -0.016346 0.37549 -0.56703 -0.21452 0.23031 -0.3037 0.003304 0.097678 0.043739 -0.15063 -0.12079 0.044139 0.033889 0.19506 0.17456 -0.068133 0.33486 -0.20139 -0.0065023 -0.20276 0.041652 -0.1284 -0.048611 -0.097644 -0.0032308 0.06674 0.040331 -0.17401 0.0078011 0.031643
0.15392
0.65332 0.25018 -0.19382 -0.080144 0.12808 -0.041037 0.12053 0.27935 0.017956 9.1012e-06 0.15082 -0.45587 -0.052941 -0.023838 0.32945 -0.1813 0.041918 0.32466 -0.19044 0.13027 0.027351 -0.38851 0.14186 0.091971 0.18948 -0.25291 0.15275 0.029461 -0.03603 0.47564 -0.034994 0.056288 0.092151 0.21029 0.019342 -0.17083 -0.18379 0.16627 0.078285 0.48648 0.029658 0.21251 -0.14943 -0.1961 -0.019022 0.18449 0.043703 0.12554 0.031447 -0.062938 -0.1454 0.2094 0.31678 -0.19999 0.022326 0.17801 0.076281 0.13747 -0.17195 0.032416 0.17518 0.14253 0.41449 -0.0051466 -0.074454 -0.0033113 0.15728 -0.063405 -0.084127 -0.28208 -0.13841 0.069678 -0.20473 0.11323 -0.33601 0.13874 -0.062302 -0.029848 0.13771 -0.2423 -0.25881 0.16611 -0.0080396 -0.28333 -0.070626 -0.3311 0.082249 0.18648 0.017859 0.07791 0.090508 0.14426 0.092651 0.041 0.067647 0.1327 0.11339 -0.086021 -0.20416 0.10869 -0.03951 -0.37447 -0.17942 0.062808 0.12211 0.046124 -0.13671 0.221 -0.0014129 -0.20602 -0.19555 -0.13416 0.10927 -0.0074852 0.042839 -0.045505 0.22322 -0.078893 -0.048086 0.12324 0.1149 0.30581 0.19492 0.034292 -0.058513 -0.19842 -0.050161 0.018708 -0.1628 0.0090576 -0.21911 -0.18015 -0.023929 -0.35515 -0.056112 -0.013208 0.039222 0.23391 -0.078813 -0.0019491 -0.054284 0.19982 0.11382 -0.18734 -0.065128 -0.038421 0.13573 -0.13271 -0.26242 -0.22239 -0.31706 0.063099 -0.28099 0.13586 -0.36224 -0.19647 -0.043035 -0.33252 -0.12246 0.049464 -0.14232 0.0074039 -0.1651 -0.38393 -0.060534 -0.12073 0.42218 -0.02273 -0.079381 -0.052996 0.05356 0.20212 -0.0077717 -0.10736 -0.042571 -0.050508 -0.065507 -0.17413 -0.2259 -0.065948 -0.31889 -0.11035 -0.43618 -0.21958 -0.51441 -0.30108 -0.11535 -0.16131 -0.075341 -0.21983 -0.33407 -0.16435 0.092852 -0.15682 -0.084185 0.042179 0.31515 -0.077612 -0.078273 -0.13656 0.10408 0.043879 -0.2007 -0.14908 0.019269 -0.13654 -0.049081 0.11028 -0.059472 0.13926 -0.38055 -0.1076 -0.12527 0.18139 -0.24897 -0.33459 0.0056587 -0.21502 -0.019925 -0.037259 -0.11951 0.13263 -0.085646 0.025705 0.061492 -0.33798 0.024095 0.040271 -0.15867 0.090338 -0.10564 0.16586 0.17544 -0.05393 0.13567 0.14236 0.11389 0.16433 -0.01642 -0.10844 0.095354 -0.32351 -0.13624 -0.17421 0.13888 -0.24007 -0.13466 0.26729 -0.063672 -0.1349 -0.023327 0.12322 0.20798 0.029226 -0.10194 -0.074449 -0.1246 0.072276 -0.32015 0.26951 -0.2487 0.2715 0.056647 0.18379 -0.038889 0.47604 0.21324 0.06538 -0.049031 -0.13775 -0.20137 -0.020923 -0.002413 -0.20988 0.046638 0.17792 -0.3061 -0.02331 0.025168 0.28097 0.066904 -0.18183 0.0098729 0.3709 0.034147 0.30058 -0.11468 0.43774 -0.11098 0.27992 0.19257 0.15206 0.26876 0.34355 0.35928 0.22562 -0.14723 -0.0041909 0.20242 -0.10737 -0.0644 -0.018312 -0.20734 -0.067872 0.26957 -0.3361 0.061641 -0.19609 0.154 0.19303 0.33896 0.11032 -0.32527 0.14515 0.20997 -0.20137 0.14275 0.23848 -0.042101 -0.044259 0.279 0.49041 -0.000726 0.30153 0.15923 0.06004 -0.1598 0.26362 0.1701 -0.28869 -0.054476 0.003187 0.24685 0.13447 -0.059688 -0.25757 -0.044408 0.046072 -0.069237 0.16485 -0.0016476 -0.026973 0.014995 0.20517 0.028512 -0.25642 0.045078 -0.1196 0.043017 0.17776 0.21441 0.19268 -0.14512 0.10037 -0.018383 -0.21854 0.18124 0.25842 0.02186 0.32413 0.089587 0.08328 -0.035413 -0.027008 -0.18069 -0.14138 0.1987 0.20459 0.23111 0.20352 0.083155 -0.16019 -0.20255 0.096395 -0.2916 -0.14512 -0.061551 0.12078 -0.024938 -0.18816 0.073936 0.05825 0.072856 0.13215 -0.13891 0.044248 -0.039509 -0.056361 0.11604 0.087808 -0.10268 -0.16108 -0.17862 -0.14888 -0.10543 0.14635 0.034878 -0.0017988 -0.0020429 0.031863 -0.19242 0.22001 -0.181 0.0058473 0.0005365 0.064753 -0.034866 -0.24567 1.0325e-05 0.082671 -0.020655 -0.194 0.089046 0.032633 0.05461 0.28941 -0.0080812 0.10378 0.03464 -0.024471 -0.13233 -0.17983 -0.25677 -0.40286 -0.046133 0.079578 -0.20547 -0.32807 -0.014943 -0.19748 0.12732 -0.094174 -0.11292 -0.012966 -0.071847 -0.10616 -0.14031 0.013883 0.16481 -0.012385 0.026155 -0.032977 0.3427 0.082683 -0.055515 -0.067233 -0.13472 0.050013 0.1383 0.095187 0.08982 0.11515 0.19114 -0.087176 -0.48499 -0.026895 -0.00068361 -0.18006 -0.00052177 0.10046 -0.17187 -0.16443 0.22274 0.051362 -0.025624 -0.061433 -0.19895 0.26251 0.23544 0.23126 -0.048741 0.21248 -0.12471 0.2272 0.16383 0.11935 0.38319 0.34404 -0.3241 -0.17958 -0.34043 -0.1285 -0.15934 0.16669 -0.16587 0.26746 0.026142 0.036047 -0.31086 0.17726 -0.186 -0.29091 -0.01173 0.16678 0.10933 -0.1048 -0.12838 0.10098 -0.18839 0.19549 -0.010719 0.36132 -0.11576 -0.0963 -0.023363 0.050236 0.22919 0.39864 0.0079137 0.013957 -0.11315 -0.081603 0.062086 -0.018541 -0.11761 -0.043789 0.09554 -0.24934 0.23636 0.11291 -0.1532 0.053668 0.21232 0.036776 0.18428 0.051407 0.12661 -0.069159 -0.019884 -0.26651 -0.21814 -0.081259 0.059093 0.063056 -0.14598 0.035913 -0.092556 0.17031 0.24213 -0.070352 -0.018451 -0.32394 0.0010938 -0.16144 -0.096122 -0.12429 0.070871 -0.080544 0.12006 -0.013432 -0.10624 0.18187 -0.27287 0.16522 0.0015165 -0.066016 -0.075949 -0.027086 -0.30532 -0.085581 0.0609 0.051561 0.17992 -0.024462 0.20402 -0.03577 0.025442 -0.14044 0.13857 -0.38002 0.022118 0.21741 -0.22175 -0.28112 0.15599 -0.31937 0.14754 -0.42063 0.12124 -0.11195 -0.25621 -0.22412 -0.19143 0.0030746 -0.19376 0.021106 -0.051154 0.2638 0.011207 -0.1929 -0.13596 0.058024 0.03044 -0.199 0.024589 -0.15329 -0.33012 0.12286 -0.26231 -0.13219 -0.18682 0.16588 -0.29882 -0.16713 0.16974 -0.10632 -0.13882 -0.11767 0.1423 0.089465 -0.10409 0.12759 -0.10958 0.24407 -0.21396 -0.22 -0.065584 -0.070034 0.027008 -0.065375 0.22276 0.02767 0.11832 0.061674 0.10186 -0.28134 -0.12335 0.11859 -0.054909 -0.089872 -0.26231 0.097307 -0.26193 0.1854 0.012527 0.0020689 0.2312 -0.17481 0.3071 -0.052264 -0.057775 -0.21546 -0.34786 0.06392 -0.17848 -0.14432 -0.096015 0.14322 0.074242 -0.083821 0.10936 0.067155 0.048464 -0.16871 -0.018579 -0.36227 -0.042946 -0.055885 -0.16868 0.037863 -0.21538 -0.17916 0.010613 -0.070813 -0.31331 0.13609 -0.20885 0.28306 0.094725 -0.066688 -0.15738 -0.04009 -0.02534 -0.16709 -0.32696 0.042201 -0.30403 0.25779 0.17318 -0.41486 0.024681 0.20695 0.0022461 0.098018 -0.11078 -0.082338 0.18406 -0.091198 0.070803 0.25657 0.046993 -0.028376 -0.034979 0.07276 -0.24615 -0.017884 0.2746 0.088463 0.17106 0.10343 0.14698 0.23385 0.017924 -0.30924 -0.12654 -0.21649 -0.055157 -0.17303 -0.1575 -0.089537 -0.1666 0.040941 -0.30119 -0.20606 0.035461 -0.051546 0.25437 -0.085846 0.061156 0.050034 0.17623 -0.076091 -0.098968 0.084328 -0.023382 0.10546 0.031549 0.057472 0.19303 -0.33593 -0.14079 -0.12348 -0.058525 0.07081 -0.01918 0.15 0.29354 0.03274 0.3528 -0.094643 -0.17276 -0.1153 -0.10363 0.073207 0.12332 -0.10438 0.11303 0.00084904 0.13339 0.10755 -0.20139 0.0042389 0.33947 0.16512 -0.31033 -0.091106 -0.14028 -0.11437 -0.015357 0.14182 -0.15697 -0.19979 0.058244 -0.08439 0.11001 -0.13349 0.34595 -0.0098093 0.054275 0.18749 -0.12892 0.11905 0.25588 0.005313 0.24528 -0.15436 -0.027669 -0.14263 -0.0044106 0.2581 0.06671 -0.20734 -0.24125 0.012279
0.32695
0.50563 -0.31248 0.42913 -0.32766 -0.37461 -0.10754 -0.01239 -0.045465 0.0075538 -0.010027 0.097888 0.080575 -0.015212 0.12824 -0.13286 0.17797 0.080332 0.2233 -0.049308 0.05795 0.2565 -0.21488 0.11363 -0.16298 -0.15445 -0.35725 -0.206 -0.048963 0.074053 0.17753 -0.15808 -0.1713 -0.07315 -0.20919 -0.26274 0.11656 0.14515 -0.0064884 0.31093 -0.2024 0.053039 0.11639 0.14181 -0.057499 0.012893 0.20011 0.14007 -0.24602 0.091579 -0.2385 0.13448 0.14488 -0.067862 0.10028 0.17569 0.052895 0.14969 0.038977 -0.11931 0.028016 -0.062172 -0.25936 0.076165 -0.11822 0.034604 -0.14185 -0.05353 0.050736 -0.034726 -0.039584 -0.15815 0.019345 -0.06762 0.3253 0.12688 0.056489 0.11336 -0.098634 0.28183 -0.017173 0.24712 0.017945 0.083652 0.081078 0.076976 0.28604 -0.049969 -0.025424 0.30746 -0.090139 -0.068755 -0.017856 0.069397 -0.062703 -0.094636 0.13144 0.071289 -0.17571 0.073518 -0.045265 0.012693 0.080409 0.085611 -0.0583 0.2465 0.23753 -0.13662 0.023868 0.33132 -0.072623 -0.03668 0.14394 -0.035146 0.06639 -0.20763 0.085189 -0.1795 -0.30487 -0.23383 0.15096 -0.05224 0.050363 0.039937 -0.19754 -0.015266 0.010824 -0.20266 0.06525 -0.019159 0.031079 -0.04628 -0.069859 0.17181 -0.12679 0.030428 -0.079779 0.14315 0.34916 0.095572 -0.082199 -0.30986 0.11368 -0.064094 -0.25817 -0.12375 0.13875 0.15537 -0.19912 0.036164 0.011717 -0.086743 0.041985 -0.027204 -0.12351 0.060043 0.037597 -0.1892 0.07718 -0.07802 0.077322 -0.15479 0.11079 0.1464 -0.13491 0.10349 0.1015 0.1847 0.38285 -0.26914 -0.075167 0.33789 0.093079 -0.19106 -0.072717 0.039315 -0.038235 0.16979 -0.21225 -0.013874 -0.22637 -0.005448 -0.00028075 0.0094518 -0.04197 0.12223 -0.00073439 -0.011913 -0.055832 -0.038884 -0.081058 -0.071801 -0.16448 -0.087324 -0.25148 -0.13943 0.014121 -0.26467 0.019412 -0.072233 0.33306 -0.13944 -0.22505 0.02172 0.070873 0.083081 0.10225 -0.037931 0.14231 -0.15387 -0.0057182 0.067292 0.083301 0.011019 -0.14065 0.15615 -0.07054 -0.014312 0.090011 -0.18497 -0.15074 -0.057807 -0.25781 0.12409 0.096834 0.083014 0.026842 -0.19755 -0.19796 -0.0014025 -0.017103 -0.24277 0.081411 -0.32961 0.095338 -0.051791 -0.1892 -0.017673 -0.041601 -0.021482 -0.0016851 0.01311 0.057377 -0.23441 0.0022883 -0.21492 -0.15188 0.11402 -0.27182 -0.16049 0.022634 0.040923 -0.042662 -0.087732 -0.093664 0.055538 0.18894 -0.046012 0.015254 -0.093302 -0.00053921 0.16191 -0.16262 0.14972 0.057421 -0.002163 -0.011328 0.045706 0.04308 0.058605 -0.16507 0.069334 -0.19358 0.15755 -0.22529 -0.10631 -0.3022 -0.20481 -0.21988 -0.21368 0.031362 -0.014135 -0.088467 -0.12737 -0.18491 0.063642 -0.18157 0.026635 -0.2172 -0.13648 -0.14518 -0.20624 0.082753 -0.054784 0.11531 -0.16177 0.021843 0.064825 0.30363 0.020166 0.15611 -0.20008 -0.041851 0.018314 -0.23685 -0.30651 0.080576 -0.012796 0.10916 -0.14591 -0.017554 -0.042904 -0.066782 -0.20926 0.21975 -0.10165 -0.0075294 0.03997 0.15936 -0.074668 -0.1642 -0.10151 -0.17845 -0.34243 -0.20014 -0.0056455 -0.24306 0.081952 0.045237 0.29109 0.16907 0.072352 0.045719 -0.32443 -0.21676 0.052639 0.018136 -0.20425 -0.085201 -0.20402 0.12552 0.074884 0.18643 -0.046963 -0.11691 0.013535 -0.11866 -0.15864 -0.058867 -0.060013 -0.085182 -0.17284 -0.26035 -0.055921 -0.066797 -0.051259 0.012358 -0.10343 0.12232 0.0052535 -0.1488 -0.30461 0.11752 -0.13888 0.026526 -0.074765 0.17598 -0.16698 0.17596 0.10788 -0.27545 0.055552 0.14006 -0.030058 -0.00065925 -0.01051 0.055097 -0.012653 -0.098185 -0.15084 -0.2688 0.042935 -0.090481 -0.13273 -0.081907 -0.10668 -0.024437 0.32407 -0.25688 0.013554 -0.14081 -0.12115 -0.10494 0.032299 0.16438 0.24025 -0.12706 0.21481 -0.072822 0.15695 0.084848 -0.026688 0.16118 -0.10822 0.05187 -0.18458 0.087468 -0.43595 -0.10323 -0.0057123 -0.16421 0.16976 -0.072126 0.19671 0.13674 -0.0072779 0.13867 0.12293 0.22627 -0.008104 0.051549 -0.29648 -0.18997 0.27895 0.0081725 0.036684 -0.025811 -0.068202 0.17818 0.19408 0.069862 0.24858 -0.15187 0.13257 -0.18834 -0.16978 -0.064791 -0.041436 0.081549 0.036803 -0.14118 0.36591 0.14251 -0.20421 0.063506 0.15507 0.21099 0.030474 -0.045012 -0.023275 0.14303 0.092284 -0.10342 0.24424 0.21492 0.24171 0.08191 0.28821 -0.010807 0.27313 0.0059932 -0.016037 -0.30157 -0.015391 -0.12686 0.15462 0.13209 0.089097 0.17437 0.030591 -0.12874 0.1674 -0.0044492 0.053104 0.1001 0.0062201 0.18929 -0.16952 -0.065001 -0.14266 -0.19091 0.013396 0.14347 0.11103 0.019568 0.2215 0.23584 0.28066 0.13123 0.091506 -0.085044 -0.086366 0.18808 0.040394 0.11494 0.13072 0.11514 0.035407 0.079737 0.027138 -0.12293 0.098009 0.12261 0.23099 0.36966 -0.0099899 0.00048132 -0.087303 -0.18887 -0.18607 -0.22266 0.021643 0.12339 0.033554 0.19626 0.17419 0.22234 0.061419 0.08189 0.09022 0.12455 0.12997 0.025301 0.10979 0.017932 -0.086391 0.058132 -0.15401 0.076064 0.01322 0.37924 -0.12246 0.16986 0.09061 0.14592 -0.26637 -0.13147 -0.06104 0.027137 -0.05078 -0.016968 -0.060517 -0.12314 0.082384 0.19875 0.13563 0.062078 0.05294 0.09291 0.10064 0.13205 0.0095409 0.13603 0.084719 -0.11636 0.028022 0.0875 0.18631 0.18198 -0.2009 0.23049 0.18693 0.14161 -0.016216 0.12561 -0.01741 0.25591 -0.18083 -0.046677 -0.15631 -0.033195 -0.152 -0.016988 -0.012981 -0.054584 0.18979 0.0082512 0.038921 0.065684 -0.13403 0.21765 0.21776 -0.048199 0.16664 -0.074612 0.13117 -0.32884 -0.13844 0.1845 0.22833 0.021839 -0.095996 -0.18223 0.13785 -0.067621 0.04276 -0.15925 0.013637 -0.15391 0.060565 -0.041263 0.17781 0.019901 -0.063676 -0.044823 -0.0058978 0.11994 0.094023 -0.054946 -0.069509 0.26388 -0.18091 0.2526 0.24043 -0.06465 -0.11075 0.0081006 -0.029402 0.18347 0.068038 -0.13757 -0.024149 0.0034408 -0.0037212 0.027324 -0.039178 -0.052795 0.05961 -0.069826 -0.026939 0.0084815 -0.084204 -0.035985 -0.017262 -0.17877 0.047508 -0.03275 0.009504 -0.081104 0.2926 0.089829 0.17311 0.0085163 0.13619 0.21427 -0.1054 0.22406 0.28755 0.057376 -0.26204 -0.071367 -0.05372 0.041905 -0.061276 -0.017537 0.10484 -0.19733 0.036611 -0.1537 -0.00016828 -0.18933 -0.12711 -0.35835 -0.045429 -0.066353 0.011093 0.00093565 0.01093 0.22884 0.067882 0.094576 -0.19842 -0.08699 0.12234 -0.26351 -0.18085 -0.098251 -0.088956 -0.080553 0.03972 -0.24303 -0.036163 0.0034718 0.097964 -0.013681 -0.13146 0.054435 -0.038825 -0.2013 -0.057129 -0.23819 -0.093931 0.17051 0.21474 0.049555 -0.2398 0.15212 -0.086342 -0.068911 -0.13905 0.092861 0.0025965 0.25135 0.16649 0.34951 0.36273 -0.19135 0.01087 0.096185 0.23326 -0.077655 -0.30076 0.049957 0.13052 0.079867 -0.071289 0.10877 0.20516 0.13116 0.13583 -0.21173 -0.15691 -0.15128 -0.046667 0.35585 0.29857 0.12442 0.12697 0.32583 0.015682 -0.23289 -0.079895 -0.082488 0.13585 -0.068154 -0.074438 -0.056736 -0.11416 0.26098 0.23363 -0.0057325 -0.10727 -0.15988 0.070663 -0.057017 -0.010885 -0.1185 0.17382 -0.11598 -0.20636 -0.028264 -0.17168 0.17536 -0.28769 -0.023588 -0.12511 -0.10815 0.25681 -0.16319 -0.089739 0.20892 0.052454 -0.20012 0.26943 -0.37195 0.36023 -0.25151 0.2278 0.34263 0.096198 0.16198 -0.25175 -0.078754 -0.038133 0.24911 -0.13883 -0.20906 -0.32761 0.2144 0.039038 -0.35926 -0.21773 -0.13974 -0.092142 0.036686
1.2679
-0.24645 -0.018667 -0.11239 0.15343 -0.064604 -0.053632 -0.035642 -0.1943 -0.13404 0.16635 0.16393 -0.25526 -0.26827 0.04923 0.096134 -0.11698 -0.11262 -0.23429 -0.079993 0.075515 0.1888 -0.18085 0.1182 0.34845 -0.03157 0.076806 -0.26007 -0.074832 -0.25914 0.046918 0.032985 0.30567 -0.093815 0.123 0.2378 0.012291 -0.022143 0.23839 -0.3703 0.10259 0.11362 0.09561 -0.24195 -0.07443 0.059685 0.13374 -0.054451 0.26014 -0.10914 -0.10487 0.30791 -0.23336 0.21779 -0.39703 -0.046369 0.21277 -0.15598 -0.14062 0.051583 -0.22889 -0.031626 0.12221 0.038665 0.2645 0.29155 -0.12636 -0.020553 -0.088605 0.40826 -0.31601 -0.035187 0.089551 -0.17568 -0.0179 0.056054 -0.022979 0.19676 0.050675 -0.043501 -0.332 0.090291 -0.10387 -0.080591 -0.16647 0.19859 0.15455 -0.018522 -0.014621 0.050306 -0.040903 -0.12648 -0.48083 -0.044772 -0.08942 0.046968 0.065027 -0.14701 0.27124 -0.27231 -0.32122 -0.21347 -0.096587 0.024463 -0.12469 -0.02119 -0.16389 0.21223 0.14258 0.2575 -0.23451 -0.10179 -0.35883 -0.36164 -0.13943 0.15374 0.029415 0.038033 -0.014216 0.1564 0.084356 -0.15242 -0.029721 -0.1666 -0.40176 -0.4848 -0.064116 -0.014239 0.12841 0.23336 -0.062645 0.16395 -0.27442 0.17003 0.12459 -0.054193 0.16647 0.10528 -0.024864 0.099557 -0.11246 -0.10931 0.18426 -0.1385 0.047161 -0.24817 0.050836 0.24436 -0.031307 -0.032755 0.33692 -0.14151 -0.0092861 -0.043566 -0.40305 -0.23561 0.042716 -0.10134 0.11004 -0.15379 0.07743 -0.19418 -0.15286 0.13177 0.13608 -0.072921 0.41592 0.027341 0.046806 0.071794 -0.24051 0.03784 -0.20717 -0.10997 -0.12299 -0.20289 0.081403 -0.1028 -0.18481 0.18799 -0.24779 -0.12778 0.13271 0.0043167 -0.2372 -0.060624 -0.030835 0.043228 -0.21483 -0.04585 -0.13204 0.0084505 0.17629 -0.12473 -0.024582 0.38277 -0.12177 -0.051968 -0.13079 -0.026742 0.011174 0.20817 0.28663 -0.14396 -0.29944 -0.067657 0.0034477 -0.15572 -0.02817 0.018039 -0.018859 0.067905 0.0452 0.21012 0.036587 0.0565 0.21955 0.23824 0.082604 0.16069 -0.00086022 -0.087719 -0.15939 0.22001 -0.057138 0.086222 -0.56166 0.25152 -0.28296 -0.12548 0.11005 0.0044869 0.24793 -0.18041 -0.31547 0.16822 -0.30171 -0.20657 -0.14769 -0.11879 0.18735 -0.061269 0.34479 -0.056145 0.19225 -0.38396 0.12373 -0.23787 -0.26113 -0.14032 0.086518 -0.28044 0.030424 0.0055832 -0.26342 -0.14824 0.061222 -0.39819 -0.15346 0.047362 -0.31315 0.2053 -0.29525 0.16287 -0.2791 -0.10019 -0.00666 0.023221 -0.063525 0.23717 0.1701 0.29167 0.0099819 0.23603 -0.017149 0.10915 -0.048845 0.033497 0.13527 0.11214 0.21863 0.022528 -0.1167 0.34911 -0.11719 0.017984 -0.044218 0.093236 -0.11267 -0.055297 -0.082958 0.05086 -0.022116 -0.24142 -0.20063 -0.043532 0.41396 0.1254 -0.01515 -0.012132 0.16199 -0.1642 -0.0079891 -0.34595 0.056414 -0.094458 -0.28244 0.099972 0.1108 -0.1298 -0.062829 0.19387 -0.22162 0.10235 -0.27466 -0.19816 -0.058288 0.16845 0.01167 -0.24396 0.15062 -0.20329 -0.054303 -0.21718 0.36511 0.34951 0.035442 0.09674 0.10485 -0.11213 0.14704 -0.16963 -0.12982 0.020169 -0.35649 0.023355 0.21466 0.30087 -0.043901 -0.1216 0.23822 0.29064 -0.24093 0.079895 0.13669 0.0074615 0.15815 0.093522 -0.16223 0.1656 0.084598 0.092753 0.24493 0.15198 0.06049 -0.20109 -0.0069445 -0.15762 0.12404 -0.31651 -0.17491 0.015489 0.20087 -0.051407 -0.19646 -0.097818 0.27224 0.029393 -0.019357 -0.33096 0.3355 0.097765 -0.13394 0.081398 0.063648 0.15591 -0.11658 -0.072957 -0.22165 0.43154 0.00072127 0.1771 0.14706 -0.14583 0.062192 -0.15398 0.26424 0.23886 0.0021222 -0.27133 -0.234 0.15336 -0.039142 0.24377 -0.097832 0.14713 0.4432 -0.11524 -0.036662 -0.22829 0.095953 -0.026372 -0.11653 -0.095421 -0.039377 0.035429 0.16137 0.058988 -0.2307 0.068948 0.083392 -0.19844 -0.058301 -0.0042668 -0.10491 -0.088656 0.01589 0.10035 0.18161 0.023237 -0.26545 -0.17645 0.24705 0.13015 -0.36667 -0.20561 -0.047577 -0.12066 0.12543 -0.16159 0.26959 -0.12771 0.021776 0.057811 0.0062797 0.31793 -0.020943 0.32206 0.00010574 0.11189 -0.058102 -0.19524 0.10962 -0.22538 0.047164 0.032436 -0.28131 0.0205 0.0076397 -0.18911 -0.12243 0.19744 -0.31239 0.053794 -0.10486 -0.044914 -0.025814 -0.16387 0.069782 0.015429 0.024861 -0.10101 -0.04926 -0.032265 0.20438 0.42569 -0.20938 -0.32712 -0.057455 -0.12957 -0.37793 0.14819 0.010041 0.1503 -0.070282 0.029739 0.1261 0.15209 -0.015725 -0.094955 -0.028762 -0.06892 0.088746 -0.1172 -0.13597 -0.071865 -0.16421 -0.11572 -0.024829 0.11278 0.15327 0.049382 -0.072348 -0.088523 -0.29002 0.057283 -0.12506 -0.16097 -0.12039 -0.20902 0.10915 0.18257 -0.19722 -0.30384 -0.038223 -0.10822 -0.23641 -0.17464 0.052642 -0.29475 -0.3057 -0.39987 -0.11931 -0.36334 -0.012624 0.16125 -0.16019 0.12543 0.082426 -0.005612 -0.15608 -0.25495 -0.19315 -0.1004 -0.14542 -0.31185 -0.13575 -0.54767 0.081498 -0.12188 0.087484 0.092937 0.046444 -0.19951 0.17112 -0.1752 -0.032714 0.0084107 0.16765 -0.15091 0.016047 -0.37106 -0.12036 -0.10406 0.26562 0.196 0.030651 -0.30061 -0.11722 -0.11433 -0.31548 -0.34616 -0.18715 -0.23361 -0.041802 -0.0027174 0.20443 0.11963 0.16793 -0.0016144 -0.11002 -0.33551 0.15129 0.27708 0.14117 0.17614 -0.29709 -0.051076 -0.42977 -0.073738 -0.18227 0.008722 -0.018248 0.033326 -0.04775 -0.17669 -0.44141 -0.20697 -0.35043 -0.36695 0.092176 -0.22813 0.051624 -0.080382 -0.066061 -0.044538 -0.16556 -0.0085281 0.22121 0.059645 -0.070835 -0.02617 0.16333 -0.14982 -0.19461 -0.11687 0.24946 -0.11406 0.026785 -0.092996 0.020728 -0.10128 -0.1195 -0.11007 -0.18258 -0.27618 0.1022 -0.40469 -0.058786 -0.20196 0.11959 -0.15237 -0.017061 0.42055 -0.29062 -0.215 -0.14465 0.40724 -0.33748 -0.021567 -0.32186 -0.0037976 0.089357 0.077791 0.10955 -0.060854 0.0050747 -0.11189 -0.21761 -0.082332 -0.075452 -0.092202 0.031989 -0.63527 -0.067667 -0.149 -0.082377 0.13245 -0.035111 -0.092639 -0.087143 0.12722 -0.14073 0.068337 -0.081882 -0.063224 -0.40192 0.075189 0.19693 -0.17207 0.12079 0.22987 0.23517 -0.21768 -0.062046 -0.057097 -0.094985 -0.0319 -0.035168 -0.15881 -0.21598 -0.26359 -0.032385 -0.29019 -0.1016 -0.048556 -0.10519 -0.14686 0.15741 -0.27639 -0.089385 0.18042 -0.15515 -0.097095 -0.094907 -0.15981 0.071877 0.027292 -0.0051674 0.28694 -1.0764e-05 -0.13293 0.05354 -0.16104 -0.18452 -0.065255 -0.056809 0.07505 -0.39269 -0.022508 -0.38452 -0.052132 -0.44572 -0.17986 0.33671 0.12849 -0.11305 0.14562 -0.57786 -0.28469 -0.02751 0.048712 -0.028775 0.093668 0.10961 0.072204 -0.12065 0.28265 -0.015178 0.12174 0.019485 0.15604 0.021465 -0.11695 0.079848 -0.068736 -0.10947 -0.12108 -0.14066 0.18276 0.40959 0.039202 0.10063 0.2356 -0.14156 -0.098874 0.21929 0.2315 0.17185 -0.15704 -0.013609 -0.34949 0.090386 0.0043575 0.24373 -0.16189 -0.040124 0.14855 0.13473 -0.1184 -0.33004 -0.059479 0.023367 -0.0027262 0.17672 -0.2189 -0.0051121 -0.045635 0.086252 0.048688 -0.17129 -0.057203 -0.1305 -0.24539 0.073273 0.06972 -0.13859 0.3848 0.11587 0.020442 -0.096577 0.085063 -0.041433 0.011438 0.14552 0.20456 -0.246 -0.037262 -0.09832 0.012935 0.05792 -0.15024 0.068125 -0.070783 -0.055139 0.014904 0.14751 0.40798 0.1102 0.14536 -0.017079 -0.031504 0.019686 0.17202 -0.32881
0.56418
0.5541 -0.044082 0.13658 -0.16213 -0.15037 -0.15481 -0.039729 0.29275 -0.0056258 0.10856 -0.024088 -0.046566 0.035085 0.090241 -0.047511 0.33025 0.050178 -0.42521 -0.074613 -0.10536 0.053233 -0.21417 -0.077709 0.022316 -0.22067 0.073164 0.13099 -0.12987 -0.13318 -0.17787 0.23124 0.02282 0.1454 -0.12216 0.25741 -0.034177 0.10097 -0.19076 -0.082065 -0.19684 -0.26696 -0.26438 -0.050775 0.095963 0.23305 -0.41348 0.083607 -0.1634 -0.14582 -0.13536 -0.07056 -0.10674 0.17411 0.026403 0.34539 -0.16591 0.065237 -0.0013026 -0.20541 -0.21412 0.11252 0.12474 0.11172 0.25117 0.2373 -0.070609 -0.047144 0.063736 -0.12481 0.26441 0.19539 -0.24667 0.16392 -0.083077 -0.16558 -0.12354 -0.011726 0.058715 -0.3191 0.096498 -0.28606 0.091223 -0.19261 0.0090255 -0.41067 0.020111 -0.26092 0.22972 0.064498 -0.043337 0.061415 -0.074079 -0.17966 -0.024142 -0.19904 0.34622 -0.21499 0.35589 -0.18988 -0.13034 -0.40718 0.02388 -0.22779 -0.20922 -0.069015 0.096191 -0.10868 -0.25689 -0.411 0.015252 -0.053485 -0.35703 0.066263 0.10033 0.086969 0.22574 0.18822 0.099944 0.018179 -0.028379 0.14351 -0.16492 0.040189 -0.058716 0.003849 0.27962 -0.0635 0.16262 -0.45557 -0.2329 -0.28889 -0.42991 -0.31529 0.16907 0.034308 -0.0051059 -0.10344 0.079809 -0.0016101 -0.13431 -0.09555 -0.017253 -0.13458 -0.03508 0.32074 0.18712 0.15168 0.17658 0.060737 -0.2985 0.15257 -0.023665 0.0011459 0.039959 0.25082 0.27107 0.17659 0.06217 0.10616 -0.37081 -0.20427 -0.31333 -0.17048 0.064548 -0.33685 -0.11642 -0.19987 -0.099586 -0.15411 -0.050628 0.08947 0.26102 0.27534 -0.18327 -0.093538 -0.28369 -0.15538 -0.075112 0.38776 0.057386 0.25452 -0.12725 -0.1952 -0.012232 0.076136 -0.40329 0.035517 -0.37939 -0.25707 -0.049846 -0.23382 -0.095886 -0.14165 0.029806 -0.015965 0.15445 -0.15958 -0.045744 0.11119 0.096492 0.42141 -0.0087945 -0.016488 -0.23693 0.1897 -0.082662 0.036724 0.0067639 -0.13643 0.089591 0.17634 -0.25692 0.08697 -0.063526 -0.24677 -0.18726 -0.021793 -0.27498 -0.031502 0.061663 0.11322 0.18476 -0.067647 0.0039136 0.0011641 -0.16799 0.15164 0.033368 -0.17948 0.42154 -0.10685 -0.051816 -0.011936 -0.12997 -0.14372 -0.29932 -0.078556 -0.043971 0.3286 0.21241 0.11571 -0.15639 -0.043723 -0.4338 -0.24667 -0.1595 -0.21996 0.080048 0.020733 0.096164 -0.2312 0.40677 0.38578 0.14701 0.076608 -0.013936 0.013634 0.05113 0.057153 0.19344 -0.31405 -0.35875 -0.10123 -0.2737 0.01762 0.18937 0.2329 0.25293 -0.17271 -0.0094503 -0.058421 -0.11367 -0.030279 -0.11495 -0.18218 0.20122 0.062322 -0.040284 -0.1161 -0.2612 0.35335 0.15541 -0.29005 0.29774 0.32602 -0.22779 -0.040757 -0.30393 -0.17478 -0.12009 -0.063118 0.13955 0.34614 0.59359 0.43939 0.068681 0.10848 -0.11727 -0.50153 0.016863 -0.097424 -0.12385 -0.20103 -0.041729 0.12458 0.17455 -0.098799 0.18606 -0.14619 0.092709 0.15741 -0.2244 -0.030929 -0.077087 -0.47599 -0.12018 -0.02791 -0.052666 0.078554 -0.037377 0.32504 0.088605 0.19316 -0.049869 -0.050665 0.042387 -0.10943 -0.075214 -0.14755 -0.039716 0.029705 0.23533 0.14854 -0.03292 0.056529 -0.38544 -0.055991 -0.12587 -0.21316 0.17963 -0.1067 -0.041202 0.057024 0.14634 0.13931 0.18168 0.13603 0.15593 0.23476 0.31153 0.26607 -0.024129 0.078164 -0.27376 -0.11056 0.13586 0.033925 0.14295 -0.10504 0.047361 -0.23207 -0.10926 -0.17083 -0.017898 0.17626 0.090685 0.5245 -0.17358 -0.016827 -0.01402 0.091711 0.14366 0.21158 0.14254 0.19307 -0.15584 0.099489 -0.15936 0.0024377 0.083594 -0.095284 0.045213 -0.23773 0.027578 0.035404 -0.035735 0.13926 0.0027075 -0.2154 0.20758 -0.020936 0.48282 0.071879 -0.12704 0.037482 -0.093755 0.091823 0.27671 -0.24443 -0.10851 0.13906 -0.17415 0.022166 -0.20473 -0.13915 0.044915 0.025615 -0.010135 -0.24045 -0.10521 0.17512 0.15862 -0.078058 0.29209 0.0064604 0.21025 -0.10866 -0.081675 -0.2092 0.067939 0.067997 0.1245 0.077244 -0.13164 0.1994 0.15865 0.0041681 -0.10722 -0.074359 0.24683 -0.097926 -0.025519 0.039233 -0.1889 0.11403 0.21837 0.2504 0.0034184 -0.035846 0.30617 0.27007 0.20227 -0.13128 0.16828 0.13323 -0.039991 -0.0046764 -0.031176 -0.054925 0.065314 -0.024099 0.12983 0.0055126 0.15278 0.07569 0.17034 -0.22818 -0.33104 -0.054856 -0.52492 0.16101 -0.10965 0.22324 -0.20096 0.13477 0.14927 -0.059981 0.0086206 0.050753 0.20634 -0.010865 -0.057435 -0.24947 -0.20719 -0.090552 0.067401 0.095755 -0.32418 -0.062647 0.13447 0.26068 -0.28813 -0.10353 -0.12044 -0.0069725 -0.14317 -0.05663 -0.18245 -0.11268 0.079371 0.15608 -0.36513 0.077058 -0.35551 -0.20278 0.13442 -0.26786 0.059249 -0.046292 0.33295 -0.13002 -0.10957 -0.024927 -0.079849 -0.015628 -0.026793 0.55883 0.061385 0.15554 -0.013034 0.2741 0.1817 0.091376 -0.02629 -0.079085 -0.22944 -0.28207 -0.21229 -0.00016618 -0.16946 0.16919 -0.11437 0.22694 -0.20516 0.15034 -0.2781 0.0031867 -0.16536 -0.23739 0.10519 0.24654 0.068769 -0.09651 -0.21533 -0.13035 0.12083 -0.11826 -0.25787 0.093117 -0.078111 0.10992 -0.36309 -0.032121 -0.3532 0.0091496 -0.23621 0.13151 -0.026228 -0.1579 -0.24766 -0.23239 -0.027848 -0.11875 0.091856 -0.20178 -0.029717 -0.28783 -0.1869 0.047201 0.21419 -0.12348 0.077692 0.13786 0.028643 -0.16016 -0.11212 -0.15433 -0.30289 -0.082023 -0.044376 -0.15364 -0.11469 -0.0029926 -0.046074 0.31265 0.18762 -0.082745 0.39155 -0.26108 -0.013899 -0.062436 0.2617 0.1828 -0.25288 0.22117 -0.48326 -0.069599 -0.11903 0.24805 0.19234 0.32783 -0.10943 0.20872 -0.19975 -0.038987 -0.1308 0.10479 -0.32387 0.16704 -0.036061 -0.076302 0.028019 -0.059148 0.19616 0.17293 0.019515 0.11197 -0.040508 -0.24038 -0.30167 -0.22325 -0.085599 0.090032 -0.38695 0.18213 -0.13908 -0.26745 -0.52141 -0.092145 0.030762 0.0074135 0.10081 -0.16206 -0.10135 -0.18223 -0.0048668 -0.018771 -0.072581 -0.2114 0.054465 0.074635 -0.15551 0.015821 -0.17027 -0.017738 0.3036 0.055516 -0.15391 0.001869 0.012404 -0.24406 0.14561 -0.14291 -0.11478 0.027359 0.27158 0.36804 0.097513 0.18503 -0.031896 0.02162 -0.083251 -0.10174 0.1231 -0.12859 0.21811 -0.13811 0.15307 -0.093859 0.37272 0.062561 0.066187 0.024582 -0.08082 -0.32866 0.14783 -0.21306 -0.072322 -0.056858 0.021619 0.1942 0.24403 0.1984 0.20214 -0.040842 0.051178 0.2122 -0.066852 0.38163 0.16348 -0.23839 -0.15514 -0.094279 -0.037987 -0.087785 0.17216 -0.3002 0.38581 -0.13886 -0.081492 0.026381 0.005418 0.10889 0.1467 -0.35759 0.15979 0.14932 -0.29367 -0.21512 -0.23838 -0.0049481 0.0016439 -0.13199 0.27918 0.095405 0.048081 -0.0080069 0.30412 0.070406 -0.26077 -0.19786 0.3067 -0.056318 -0.11698 -0.11825 -0.020708 0.023831 -0.0073288 0.21749 0.084387 0.56893 0.07511 0.18535 0.070097 0.26365 0.15081 0.32895 -0.072249 0.18447 0.22035 -0.019807 0.15458 -0.28207 0.017632 0.25019 0.10819 -0.15237 -0.10385 -0.10376 0.066741 -0.16235 0.28426 -0.045981 -0.49221 -0.10646 -0.046126 -0.08715 -0.061002 0.0048398 0.027103 -0.017551 0.044554 0.16379 -0.22007 -0.28954 0.36033 -0.03563 -0.072559 -0.11924 -0.17475 -0.075762 0.1061 -0.27434 -0.25882 -0.111 0.24758 -0.01315 -0.049204 -0.1594 0.17553 0.045165 0.13984 0.13092 -0.1451 0.081262 -0.00052643 -0.31782 0.063808 -0.20221 -0.011004 -0.10889 0.22893 -0.094978 -0.23072
-0.80295
0.13244 0.058279 -0.035131 0.018274 -0.28793 -0.20451 -0.05534 0.22542 0.042421 0.063938 -0.026875 0.030016 -0.15013 -0.27078 0.10957 -0.19716 0.10975 0.16467 0.17957 0.026291 -0.14199 -0.31502 0.19144 0.19116 -0.054248 0.017371 -0.14203 0.011218 0.20947 -0.2093 -0.045857 0.096783 -0.12254 -0.073089 -0.30354 0.053255 -0.17539 -0.063593 0.041766 0.18596 -0.10685 -0.17756 0.049759 -0.18354 0.11327 -0.10297 0.32047 0.0068748 0.065826 -0.21635 -0.092219 -0.11309 -0.25835 0.12215 -0.22279 0.043923 0.5018 0.017013 -0.18056 -0.26682 0.15773 -0.16106 -0.09636 0.01648 -0.084088 -0.049485 0.057561 -0.091162 0.17172 -0.019057 0.23779 0.18156 0.11132 0.33154 0.27731 0.12024 0.29087 -0.0657 0.18516 0.12673 0.19305 -0.08839 -0.028406 0.19682 0.32945 -0.21199 -0.13956 0.26812 -0.21913 0.23626 0.19697 0.038452 0.037805 0.058506 0.35542 -0.27387 0.25229 -0.2021 0.08436 0.16795 0.55223 -0.46143 0.21202 0.36824 0.21295 0.28139 0.06829 0.27898 0.063326 0.028637 0.21548 0.29655 0.12852 -0.068345 -0.015843 -0.024006 0.089064 -0.10728 -0.15578 -0.039157 -0.047034 0.039624 0.051631 -0.092922 0.088405 -0.021368 -0.014659 0.10796 0.14501 0.14839 0.14932 -0.045011 0.12013 -0.21973 0.011874 0.2113 0.00072446 0.059306 0.3486 0.014915 -0.31327 0.021024 -0.26163 -0.13984 0.040557 -0.027138 -0.03214 0.12647 -0.026593 0.11977 -0.067559 0.10452 0.041734 -0.11853 -0.14688 0.16326 -0.13772 -0.028693 -0.15158 0.28403 -0.069177 0.078961 0.091194 -0.22365 -0.098854 0.17848 -0.22223 0.018341 -0.091805 -0.13047 0.031432 -0.16006 0.0006519 0.20485 -0.37895 0.036016 0.068601 0.20538 -0.24986 0.15225 0.0035199 0.14696 0.25413 -0.029626 0.18599 0.087267 0.060472 -0.055143 -0.15674 0.22265 0.021097 -0.01317 0.14407 -0.12359 -0.0086402 0.2978 0.067325 0.038575 0.023192 0.30194 -0.077151 0.23933 0.20493 0.11629 -0.019058 -0.074184 0.10891 -0.16161 -0.0064168 -0.042731 -0.016502 0.044177 -0.19142 0.3352 0.20856 0.12766 0.2021 -0.13912 0.081267 0.3045 0.27986 0.28764 0.25534 -0.30088 0.31268 -0.26213 -0.089044 0.15558 0.056444 -0.15682 0.0297 -0.13539 0.065775 0.022102 -0.018814 0.17278 0.10319 0.0012578 -0.017524 0.12184 0.054561 0.20021 -0.067558 -0.052193 0.11526 -0.068794 -0.12523 -0.44886 -0.098415 0.17112 0.12982 0.26227 0.062565 -0.077585 -0.085258 0.029273 0.23763 0.21721 0.015194 -0.0094309 0.14929 -0.17638 -0.051836 -0.30123 0.029062 -0.08841 -0.023309 0.10621 0.12154 -0.041894 0.21184 0.095777 -0.068093 0.095299 0.076018 -0.20873 0.014943 -0.15529 -0.14763 0.15765 0.0087748 -0.021344 -0.2714 0.47801 0.20729 -0.2933 0.32244 -0.32122 -0.19874 -0.14989 0.015229 -0.17394 -0.27195 -0.23393 0.042896 0.37741 0.019559 0.15571 -0.067853 0.029544 0.027003 -0.0034921 0.38771 -0.045829 0.1045 0.21502 0.0098215 0.11844 -0.33117 -0.1462 0.13845 0.027521 0.081237 -0.0092137 -0.027426 0.14777 -0.0904 -0.071082 -0.34314 -0.26731 -0.18664 0.15096 0.11238 0.4721 0.32929 0.13776 0.10551 0.041402 0.32447 -0.23549 -0.26687 -0.15688 0.21836 -0.13542 -0.12832 0.084745 -0.14129 -0.12191 0.18569 -0.17268 0.19493 0.2937 -0.4546 -0.12556 -0.26852 -0.068181 -0.3024 0.15779 0.12288 0.10844 0.27981 0.14035 0.32047 0.31793 0.29689 -0.15505 0.051929 -0.37752 -0.38522 -0.11256 0.14411 0.04296 -0.23989 -0.057647 0.18598 0.1545 0.17874 0.20789 0.15582 -0.13682 -0.10866 -0.030863 -0.37474 0.21492 0.13937 0.18587 -0.12573 0.096926 0.27 0.13053 -0.048478 0.36881 -0.013327 -0.092638 -0.048293 -0.30524 0.11958 0.027422 -0.036633 0.043125 0.14547 -0.096558 0.13776 0.27482 0.23688 0.093656 -0.0073747 -0.050345 -0.34493 -0.082621 -0.03313 -0.085687 -0.17067 0.070781 0.18355 -0.15009 -0.085389 0.091656 -0.036633 -0.080543 0.2341 0.002431 0.080079 0.25822 -0.08328 -0.40431 0.025868 0.2767 0.12613 -0.054018 0.010847 0.13442 0.2691 0.27341 -0.37075 -0.30793 0.040614 -0.37464 -0.10754 -0.15781 0.11198 -0.076007 0.0021337 0.33753 -0.079177 0.01314 -0.034231 -0.063396 0.0016851 0.17059 -0.074939 0.30206 0.038903 0.11451 -0.018303 0.11753 -0.11259 -0.23422 -0.022324 -0.044331 -0.17918 0.26651 0.05576 0.11675 -0.52473 -0.22884 -0.2298 -0.2333 -0.19609 -0.21926 -0.10814 0.1238 0.081411 -0.092297 0.10668 -0.030624 0.3104 0.024801 0.15171 -0.017167 -0.14954 -0.26575 0.1279 0.11755 0.21768 -0.12826 0.11116 -0.14053 0.074704 -0.056722 0.12646 -0.0087246 -0.043067 -0.067379 -0.62806 -0.3344 -0.37802 -0.56123 -0.45831 -0.24555 -0.085722 -0.082474 0.088572 -0.19257 0.21619 -0.031798 -0.026548 0.12604 0.067937 0.20054 -0.15056 0.045603 -0.04693 0.18959 -0.11957 0.072229 -0.079791 0.1995 0.29869 0.16739 -0.046135 -0.10206 -0.17806 -0.16797 -0.48061 -0.23591 -0.12765 -0.30174 -0.32598 -0.085568 0.057688 0.18721 0.20988 -0.04615 0.1368 0.22913 -0.05828 -0.25782 -0.29563 0.042927 0.21557 0.24153 -0.29463 0.21512 0.29944 0.0093305 0.092869 -0.34865 -0.034155 0.060559 -0.22249 -0.13822 0.043027 -0.20555 -0.47012 -0.2928 0.086827 0.21223 -0.18073 0.31096 -0.15163 0.27837 -0.047404 -0.26093 -0.0035381 0.20207 -0.12317 -0.024832 0.1496 -0.10591 0.20151 0.13666 -0.051864 -0.30431 0.24515 0.28138 0.11355 -0.047289 0.089386 -0.033439 -0.24234 -0.19378 -0.067684 -0.12948 -0.11481 0.14297 0.14093 -0.24459 0.16162 -0.029342 0.018934 0.064753 -0.16968 -0.42897 -0.3251 -0.075582 0.23553 0.19236 -0.0356 -0.35507 0.076853 -0.19883 0.044921 0.27052 0.19976 0.016298 0.30674 0.062024 0.16832 0.00097191 -0.016641 0.074096 -0.13295 -0.268 0.21446 0.037279 0.24107 -0.056944 -0.019556 0.038891 -0.081905 -0.08503 -0.35825 0.35895 0.040718 -0.29816 0.35273 -0.15694 0.088327 0.13472 0.30478 -0.19945 0.00029609 0.06163 -0.22469 -0.051255 -0.21896 0.11087 -0.19555 -0.099224 0.13297 0.096686 0.035914 -0.05871 -0.21735 -0.17515 -0.049893 0.11019 -0.064002 -0.096618 -0.24863 -0.44579 -0.31317 -0.017786 0.01315 -0.12848 -0.17446 -0.20043 -0.010169 0.15807 0.063895 0.01918 -0.044842 0.12342 -0.1827 0.075146 0.076464 -0.031881 0.019582 -0.045408 -0.1399 0.35419 0.11406 0.1344 -0.15396 -0.28003 -0.24896 0.093676 0.2713 -0.086294 0.16493 0.28216 0.043837 -0.27427 -0.049088 -0.061927 0.10486 0.20234 0.069294 0.13831 0.040838 0.22838 -0.073332 0.26505 0.0059389 -0.0034677 0.12507 -0.092344 0.0091285 -0.16768 -0.095161 0.12661 -0.167 0.029886 -0.081366 0.11707 0.086184 0.011328 -0.18242 -0.077996 -0.11716 -0.13318 -0.16284 0.075881 0.26791 -0.067345 -0.41017 -0.19169 0.13309 0.047376 0.25783 0.29002 0.092754 0.20503 0.057498 0.29326 0.31713 0.050601 0.059346 0.072516 0.0092431 -0.059216 0.059242 -0.0017737 0.083393 0.11329 -0.14725 0.13115 0.046396 0.1351 -0.19701 -0.42221 0.07268 0.28373 0.27828 -0.27773 -0.1625 -0.12924 0.14629 0.22786 -0.056523 -0.013437 0.18731 -0.063919 -0.056525 0.3717 0.18752 -0.40032 -0.075782 -0.24318 -0.18586 -0.26851 0.35468 0.23625 -0.028631 -0.015832 0.17205 0.12815 0.12867 -0.1029 0.17017 0.094969 0.31891 0.25401 0.004798 -0.11552 -0.064268 0.03448 0.1572 0.097185 0.12421 0.16123 0.33462 -0.13231 -0.20459 -0.34187 0.019144 0.1343 -0.17416 -0.059891 0.1749 0.3832 0.022635 0.040493
-1.0824
-0.011512 0.05712 0.16224 -0.099417 0.092743 0.46118 0.0042075 -0.041924 0.077847 0.22826 0.18399 0.13652 -0.016778 -0.18593 0.10778 0.036339 0.016853 -0.33514 -0.054352 -0.29918 0.10346 0.052623 0.12063 -0.04143 -0.59009 0.090682 0.057691 -0.33706 0.10915 0.099985 -0.037349 -0.17382 0.21668 -0.12259 0.35456 0.18047 -0.29426 0.26079 -0.14847 0.063518 -0.33084 0.040642 0.27146 0.20165 -0.035923 0.17228 0.17453 -0.057568 0.35072 -0.37489 0.076644 0.098476 -0.00609 -0.15497 -0.068691 -0.11941 -0.27623 0.17075 -0.27679 -0.22818 -0.25858 -0.27474 0.22554 -0.07649 0.045605 -0.062493 0.29272 0.0097846 0.16378 0.25155 0.02203 0.064655 0.12572 -0.36484 0.095769 0.21245 -0.11057 0.049099 -0.15251 -0.11805 -0.10223 0.044412 0.023579 0.056265 -0.1154 -0.07258 0.074828 0.003281 0.029383 -0.05419 -0.077796 0.19795 0.0016741 -0.20546 -0.21513 0.073454 0.17462 -0.096042 -0.0039638 0.41116 0.28893 0.24734 0.26146 -0.031548 0.22417 -0.10911 -0.27427 -0.31711 -0.15225 0.12531 0.068903 -0.02728 -0.1374 -0.30291 -0.075371 0.053099 -0.10987 0.013541 0.052212 0.074441 0.13919 0.13935 0.087083 0.025628 -0.062236 0.11911 0.092654 -0.12123 0.44333 -0.085386 0.33192 0.18549 0.093924 0.03944 0.13637 -0.20073 0.098159 -0.3053 -0.17905 -0.15717 0.1617 -0.11469 0.27676 0.017766 -0.089103 -0.096899 -0.039534 0.086558 0.027839 0.25256 0.021181 0.13988 0.020287 -0.084497 0.16538 0.022191 -0.077386 -0.032958 -0.16892 -0.34511 -0.09716 -0.1462 -0.10268 0.022057 0.21939 -0.11049 -0.098507 -0.13379 -0.24451 -0.040102 0.043528 -0.30023 0.15525 -0.07951 0.20525 0.33884 0.21013 0.14568 0.29994 0.22178 -0.21004 0.033216 -0.26877 0.063582 0.14274 -0.055223 0.1014 0.11829 0.022418 -0.095902 0.081037 -0.32641 -0.059869 0.19119 -0.055581 0.086724 -0.23034 -0.40651 -0.12787 0.21932 -0.11955 -0.057249 0.041927 0.11157 0.11365 -0.1779 0.23497 0.14632 0.26906 0.054838 0.11485 -0.076833 0.082016 0.067686 0.067975 -0.14503 -0.11445 0.12388 0.043982 -0.13041 0.11052 -0.19659 0.074118 -0.20351 -0.0437 -0.039173 0.38151 0.11626 -0.1022 -0.14713 0.11329 -0.12749 0.16364 0.14275 -0.095348 0.11859 0.02985 0.0033306 0.25201 0.097413 0.11252 0.082915 -0.055094 0.15475 0.21852 0.078714 -0.003938 0.077357 -0.23357 -0.073666 -0.068966 -0.082862 -0.0048104 -0.00057295 -0.12706 -0.11996 0.11753 -0.091032 0.29119 -0.16823 0.088279 0.1077 0.0702 0.013227 0.1478 -0.054948 0.069668 0.080934 0.081051 0.14408 -0.048857 0.021771 -0.11591 -0.039237 -0.16564 0.1453 -0.34092 -0.13794 0.078178 -0.10871 -0.064251 -0.16153 0.20942 -0.13059 0.099447 -0.17834 -0.3375 0.029196 -0.018689 -0.21418 -0.08214 -0.24645 -0.29793 -0.20723 -0.02472 0.0061564 -0.052671 -0.13709 0.065468 0.017192 -0.11094 0.066156 -0.043585 -0.18391 0.18968 -0.08498 -0.047689 0.13984 0.26282 0.32608 0.093352 -0.14985 0.060929 -0.057719 -0.070918 -0.083788 -0.13721 -0.23818 -0.19961 -0.29943 -0.27466 -0.45997 -0.28545 0.060053 0.36178 -0.025565 -0.14405 -0.24069 -0.04727 -0.4197 -0.25656 -0.22395 -0.14304 0.39368 -0.14816 -0.44902 -0.24472 0.17676 -0.0027925 -0.031957 0.15671 -0.11995 -0.41871 -0.41885 -0.46772 -0.39839 -0.50039 -0.37807 -0.31476 -0.37884 -0.32185 -0.25566 -0.012335 -0.026584 0.019775 0.0071663 0.0093109 -0.16538 -0.049232 -0.12928 -0.2398 0.26575 -0.22426 -0.068231 0.038561 0.0079216 0.24066 0.3199 -0.45375 -0.25018 -0.43187 -0.57409 -0.52675 -0.37927 -0.43025 0.028233 -0.28564 -0.1954 -0.037292 0.091856 -0.10291 0.11016 -0.19043 -0.29586 -0.21391 0.0031277 -0.26863 -0.050939 -0.10261 -0.12751 -0.25492 -0.12638 -0.0061134 0.18633 -0.16876 0.24925 -0.039877 -0.5916 -0.10702 -0.27114 -0.052219 -0.14555 0.080425 -0.31559 0.24638 0.01333 -0.12599 0.113 0.21939 -0.12727 0.54673 0.47265 -0.027185 0.12491 -0.034919 0.16758 -0.008813 0.051574 -0.11076 -0.26955 0.10746 -0.3928 0.038178 0.29539 -0.078085 -0.17435 -0.16044 -0.11592 -0.24166 0.094937 0.12374 0.14404 -0.14489 0.02509 -0.025677 -0.041274 -0.10838 0.12283 -0.125 -0.12272 0.13123 0.1923 -0.15607 -0.15918 0.15484 0.1255 -0.29732 0.093425 -0.27328 0.07783 -0.078156 0.027796 -0.30131 0.11156 0.024127 0.23571 0.040349 -0.20904 0.0012781 0.060945 0.1085 -0.02503 0.036818 0.051027 -0.052305 0.16527 -0.060263 0.36774 0.058114 0.16251 0.11984 0.021188 -0.062984 -0.10887 0.28326 -0.30283 -0.015853 0.17223 0.016476 0.35862 -0.15144 0.2325 -0.030929 -0.038587 -0.044777 0.072856 -0.12627 0.11783 -0.23974 0.1299 0.12823 -0.059077 0.06111 0.15146 -0.016009 0.026713 0.13927 -0.047639 -0.36428 0.30125 -0.0059174 -0.032113 0.28906 -0.062026 0.032615 0.18931 -0.13274 0.1769 0.17091 0.23105 0.042094 0.17258 -0.005632 -0.038222 -0.21558 0.25139 0.27559 0.017972 -0.070828 0.067816 0.025454 0.095569 0.13431 -0.072476 -0.11099 0.24218 0.0017632 0.20708 0.24161 0.02597 -0.30922 -0.031865 -0.14387 -0.042382 0.17632 0.076911 0.18353 0.017568 0.1913 0.032636 -0.041109 0.12072 0.028323 0.069268 0.12399 0.12335 0.06632 0.10966 -0.018918 0.02916 -0.080636 -0.0081594 -0.21779 -0.061413 0.2219 0.066626 -0.013906 -0.062618 0.086341 0.10136 0.24309 -0.13883 0.18352 -0.075245 0.056897 -0.079063 -0.27802 0.39115 -0.053488 0.054146 -0.055851 0.16707 0.13869 -0.01302 0.16281 -0.027779 0.061765 -0.091612 -0.10836 0.072683 0.15361 0.043022 -0.075613 0.026719 -0.20421 0.12875 -0.075626 0.17343 -0.025328 0.048188 -0.18499 -0.0051734 -0.19139 0.28346 0.034223 -0.062566 0.18636 0.054086 0.096336 -0.074609 0.027649 0.040416 0.10019 0.16588 -0.1014 0.033808 0.010664 0.017651 -0.041135 0.16143 0.061321 0.1608 -0.043229 0.20681 0.040288 0.16032 0.0050487 -0.17574 0.097679 -0.083098 0.18512 0.33511 -0.021865 -0.045044 -0.049129 0.086602 -0.095592 -0.002665 -0.034591 -0.0022959 -0.20988 0.14212 0.097292 0.0087639 0.026055 -0.11518 0.081165 0.25456 0.25808 -0.11951 0.25521 0.0013071 0.1978 0.095726 -0.11203 -0.033707 0.0033028 0.078993 0.25017 0.033021 0.074247 0.24725 0.034287 0.0034658 -0.0025913 -0.042246 -0.0064775 -0.23009 0.049801 -0.18426 0.051578 -0.049885 0.017312 -0.26154 -0.058425 -0.17236 -0.033275 -0.097776 -0.36197 -0.087815 0.0052164 0.19588 0.09058 -0.081044 0.17857 -0.22497 0.13695 -0.012595 -0.0012604 0.40315 0.014348 -0.25695 0.25281 -0.087084 0.10986 0.12016 -0.037118 0.16899 -0.078497 0.011362 -0.082082 0.13198 -0.18115 -0.088024 0.10427 -0.095494 -0.18133 0.0069364 -0.12249 -0.16413 0.02166 0.089767 -0.016537 0.050383 -0.48509 0.1014 0.030842 0.046768 -0.041108 0.23897 0.06241 0.092523 0.40893 -0.025118 0.17634 0.010997 0.10798 0.2275 0.05304 0.055666 -0.098607 0.07496 -0.044233 -0.12291 0.092928 0.10547 -0.24912 -0.11844 0.19947 -0.17732 0.090982 0.31762 -0.1712 -0.045896 -0.38782 -0.055702 -0.042258 -0.09055 0.18113 -0.068326 -0.17049 0.37559 -0.17514 0.17299 0.13645 -0.04725 -0.097466 0.26605 0.040649 -0.15129 0.079881 -0.41164 0.026865 0.058337 0.34602 -0.077768 -0.0086099 0.12465 -0.12553 -0.17496 0.012577 0.070877 0.072265 0.060752 0.095811 0.014198 -0.013912 0.11243 0.3558 0.048396 0.12631 0.25596 0.24918 0.14458 -0.2045 -0.14014 0.022687 0.28946 0.17284 -0.0043212 -0.049817 -0.066626 0.24517 0.019896
-0.058968
