0.038874 -0.56182 -0.46664 0.00018859 -0.14157 -0.46735 -0.4466 0.019435 0.070039 0.035657 0.078132 -0.18245 -0.42119 -0.32993 0.12122 -0.32231 0.027339 0.023378 0.17077 0.036554 0.50927 -0.37999 0.042726 -0.17935 -0.35977 -0.31215 -0.22082 -0.36312 -0.43726 0.0095575
0.53302
0.081987 0.26026 -0.1761 -0.46375 0.19168 0.11439 -0.05433 -0.13083 0.039373 -0.88493 0.25066 0.17288 -0.025531 -0.14925 -0.095997 -0.074493 0.17118 -0.34649 0.17228 0.046584 0.32348 0.19762 0.18984 -0.56221 -0.15943 -0.28399 0.14531 0.24728 -0.044527 0.058201
-0.022074
-0.19698 -0.37162 0.20498 -0.13083 0.15433 0.032121 -0.1601 -0.0098797 0.23148 0.029023 -0.21063 -0.51796 -0.43755 0.0049782 -0.50565 0.13128 -0.55134 -0.425 0.16139 -0.25046 0.054272 0.036579 0.055016 -0.22279 -0.029539 0.014173 -0.01447 0.50812 -0.16831 -0.14327
0.92816
-0.18488 0.22685 -0.38076 -0.18968 -0.20333 0.29002 -0.53027 -0.045665 0.086032 -0.43739 -0.043684 0.18541 0.10595 -0.048581 -0.082179 -0.035412 -0.014893 -0.15005 0.033021 -0.21469 1.0121 -0.3945 0.069206 0.20733 -0.10227 -0.086977 0.088566 0.19738 -0.2128 -0.09877
0.98154
-0.017641 0.24605 0.043618 -0.40971 -0.58426 -0.45831 -0.068837 -1.0646 -0.50935 0.012508 0.069665 0.097486 -0.012628 -0.29753 0.047552 -0.28436 0.08732 -0.018451 0.085031 0.11485 -0.14709 -0.11941 -0.16886 0.59121 0.25821 -0.012311 0.11181 -0.14961 -0.10412 -0.56953
0.13076
-0.17418 -0.0023139 -0.40448 0.23358 -0.19335 -0.16141 -0.46865 -0.063745 -0.21797 -0.096934 0.00043248 -0.2302 -0.042407 -0.02317 0.031028 0.23733 -0.21441 0.020852 0.13704 -0.13226 0.20624 -0.028876 -0.038329 -0.30796 -0.020779 -0.029797 0.058776 0.32299 0.0026076 0.28839
0.072462
0.07704 0.68778 -0.17472 -0.51555 0.14594 -0.30101 0.014544 -0.73522 -0.14871 0.023227 -0.13928 -0.16947 -0.17712 -0.075268 0.072198 -0.10182 0.1146 0.039011 -0.2417 0.11562 0.15544 0.059748 -0.1276 0.15929 -0.49205 0.020218 0.099719 -0.28365 0.04779 -0.20828
0.4811
0.20147 -0.014814 0.060046 -0.052669 0.32787 0.15519 -0.13655 0.016205 0.079419 -0.0003272 0.057565 0.012065 -0.10526 0.17299 0.25046 0.019246 0.012884 0.033233 -0.11343 0.046732 0.27102 0.1028 -0.13683 0.54151 0.1964 -0.072524 0.33705 0.41269 -0.38349 -0.14817
-1.4013
-0.47519 -0.25683 0.068944 -0.21705 -0.067712 -0.18347 -0.56767 0.007591 -0.27902 -0.57854 -0.41869 -0.3676 -0.23844 -0.45593 0.030465 -0.33276 0.07239 -0.0052369 0.15892 -0.53988 0.24703 0.016164 -0.038503 -0.72323 0.11655 -0.17057 -0.062354 -0.59265 -0.011626 -0.41947
0.71709
-0.47236 -0.1867 0.096594 -0.07461 0.35066 0.27701 0.0097891 0.032471 0.035522 0.10316 0.12472 -0.10667 -0.0059406 -0.52986 0.17344 -0.095202 0.48676 0.074026 -0.5151 0.33983 0.18441 -0.11873 0.047899 0.091932 0.19951 -0.62757 0.32843 0.066256 0.051288 -0.17037
-0.96612
